%YAML:1.0
---
opencv_ml_svm:
   format: 3
   svmType: C_SVC
   kernel:
      type: LINEAR
   C: 1.5
   term_criteria: { epsilon:1.1920928955078125e-07, iterations:1000 }
   var_count: 324
   class_count: 10
   class_labels: !!opencv-matrix
      rows: 10
      cols: 1
      dt: i
      data: [ 0, 1, 2, 3, 4, 5, 6, 7, 8, 9 ]
   sv_total: 45
   support_vectors:
      - [ -0.318227798, 0.0208658837, -0.156385437, -0.171944052,
          0.0875178576, -0.18150571, -0.0857198834, 0.0144867226,
          -0.272286177, 0.422366112, -0.0894843638, 0.211736962,
          0.135764048, -0.0869110078, -0.557664573, -0.285026193,
          -0.629033029, 0.0391114503, -0.125066444, -0.0795339644,
          -0.167405158, 0.0389178731, 0.153915867, 0.199307114,
          -0.120168343, -0.157329291, -0.350470901, -0.181537837,
          -0.180641785, 0.303239137, 0.846805155, -0.664098799,
          -0.761817098, -0.302530944, -0.440450788, 0.317690104,
          -0.283979505, -0.2995345, 0.308269352, 0.202315733,
          0.175641611, -0.462911993, -0.269805729, -0.205585748,
          -0.145438552, -0.170841098, -0.0784385726, 0.252046943,
          0.363777667, 0.603342712, -0.440581977, -0.248192027,
          0.198980093, -0.105453961, 0.0950703472, -0.0578263886,
          0.547105849, -0.0546441376, -0.528526425, -1.19459534,
          -0.542916119, -0.0165996179, 0.398193061, 0.0572257675,
          -0.385897487, 0.206957147, -0.0373314619, -0.516530216,
          -0.465104729, 0.290618539, 0.386570454, 0.279221773,
          -0.0305273533, -0.0107536456, 0.0944167003, 0.131461039,
          0.630087376, -0.264714897, -0.0318853222, 0.10042455,
          0.390965134, -0.847925425, -0.146183223, -0.0986520573,
          -0.00565431314, 0.0364702716, 0.162119001, -0.364990324,
          -0.39091748, -0.499116808, 0.78349185, -0.361161649,
          -0.110767886, 0.287789643, -0.0351087078, -0.454217881,
          0.491810411, 0.606420398, 0.603881419, -0.176734164,
          -0.0169582777, -0.377230465, -0.321647018, -0.0295927506,
          0.346941888, -0.487145692, -0.171625599, 0.0642354563,
          -0.252357066, 0.304722071, -0.610322952, 0.0180673636,
          -0.0986678675, -0.548264623, 0.309800982, -0.109561861,
          -0.569928467, -0.18652609, 0.479024082, -0.103561476,
          0.900841117, -0.537234664, -0.801971138, 0.913160264,
          0.193795562, -0.241452932, 0.271674842, 0.391602427,
          -0.370617002, 0.112308592, -0.0986678675, -0.77338177,
          0.16670464, -0.319945008, -0.0790601522, -0.253759295,
          0.486904711, -0.127675056, 0.0373770781, 0.177647471,
          -0.252806246, 0.913464308, 0.806747794, -0.466391057,
          -0.183296517, -0.0552899688, 0.415948063, 0.154861137,
          -0.325726092, -0.584889233, 0.342443109, 0.246189296,
          -0.374884009, -1.03398681, -0.014946118, 0.490683019,
          -0.108045764, -0.790675938, -0.245103687, 0.891975522,
          0.579814613, -0.911839306, -0.66018635, 0.331631482,
          0.595657408, 0.0996171758, -0.124405324, 0.446225286,
          1.4221431, 0.67825371, -0.24779664, -0.450012177, 0.809609056,
          1.11506712, 0.381666988, -0.198829725, 0.000864418049,
          0.503746271, 0.0848304704, -0.573756278, -0.128726587,
          0.274172336, 0.22905755, 0.160453394, -0.407842696,
          -0.318985075, 1.25354266, 1.04035532, -0.0531312339,
          -0.0245265123, 0.119730666, -0.591936111, 0.0651156902,
          -0.565246999, -0.186827734, -0.188905388, -0.281766742,
          -0.215707958, -0.410529971, 1.03792417, 0.868077219,
          0.306605786, -0.362199694, 0.140484154, 0.153960913,
          0.203452468, -0.570818543, 0.140342042, 0.104469992,
          -0.583648562, 0.00216519134, -0.565246999, 0.198619679,
          -0.664809585, -0.203961983, -0.255371481, 0.180575579,
          0.0969967991, -0.206696376, 0.288217425, -0.186018422,
          -0.209883273, -0.448024154, -0.841193378, -0.0494730696,
          -0.239477381, 0.236780077, 0.167930022, -0.174955964,
          -0.106901467, -0.0260105506, 0.307774782, -0.0142459124,
          0.149763137, -0.420086741, -0.0965266973, 0.167217627,
          0.221769989, -0.0738151446, -0.174534068, -0.12217325,
          -0.558073103, -0.22327511, -0.161948353, 0.0473880358,
          0.335677058, -0.188078448, 0.387252539, 0.119256072,
          0.377809435, 0.0211595185, 0.0423724875, -0.0320934616,
          0.310687274, 0.528941274, -0.311242908, -0.454381585,
          -0.134881109, 0.412130684, 0.221237123, 0.279193848,
          0.182182655, -0.63157171, 0.504881799, -0.207788855,
          -0.1148609, -0.158692464, 0.458796591, -0.240182489,
          0.230353132, -0.329864621, 0.0116459811, 0.345373571,
          -0.0947597921, 0.0871826932, -0.619687736, 0.332757175,
          0.138419658, -0.277754724, -0.285545647, -0.306143731,
          0.23574701, 0.078271769, 0.178520203, -0.487936586,
          0.848348558, 0.205184609, -0.29355219, 0.427862763,
          -0.502256572, 0.256996214, 0.311902136, 0.617617965,
          0.268428534, -0.29224205, -0.510975718, 0.142656729,
          0.337779611, -0.499534667, -0.596728086, -0.173931971,
          0.0717312917, 0.355141789, -0.56104064, -0.417538792,
          -0.541234851, -0.15850991, -0.000216396642, 0.248143509,
          0.104914948, 0.256865829, 0.395951569, 0.336821258,
          0.451436013, 0.310244799, -0.273578554, -0.120347723,
          -0.0725748762, -0.00549734104, 0.152313396, 0.356137991,
          -0.376940578, -0.0568779409, 0.00663228985 ]
      - [ 0.0458791964, -0.0380096883, 0.0406376161, 0.0296396744,
          0.455068171, -0.14645642, -0.0702721477, 0.0657224506,
          -0.0117703127, 0.134200141, -0.230951339, -0.0112193776,
          0.11025244, 0.0199311133, -0.180820078, -0.377933204,
          -0.210027397, 0.177064568, -0.304152846, -0.42254886,
          -0.370788485, -0.107401706, 0.149662375, 0.259291738,
          0.314865321, -0.0688844398, -0.341651201, -0.482081711,
          -0.305442512, 0.226066038, 0.271398693, -0.113787271,
          -0.41137132, -0.42644006, -0.410804361, 0.0153833879,
          0.00264502154, 0.0445053577, 0.186561197, 0.0556148924,
          0.178397611, -0.178919405, -0.446185589, -0.00828504376,
          0.0561545417, 0.0230661072, 0.163542703, 0.09107811,
          0.166398913, 0.229427382, -0.16601482, -0.212760583,
          0.0150942178, 0.0684361681, 0.0666044503, 0.17802304,
          0.445845366, -0.0600290932, -0.406769633, -0.662548482,
          -0.491396457, -0.199882701, 0.206671685, -0.243752271,
          -0.492803067, -0.573323786, -0.445510864, -0.101417445,
          0.0473822914, 0.586264253, 0.336099267, 0.0582755357,
          0.153963655, 0.0162948817, -0.0108934212, 0.210799292,
          0.576313019, -0.260012537, -0.0485257767, -0.273433983,
          0.0312882215, -0.299941003, 0.0699530244, -0.124613509,
          0.145208389, 0.214560777, -0.120568931, 0.108050123,
          -0.248544708, -0.0514148958, -0.394441009, -0.332816035,
          -0.247681469, 0.0306631438, -0.0792911574, -0.114330985,
          0.270407468, 0.123239726, -0.0401367247, -0.134381503,
          -0.0847888514, -0.215889812, 0.306142658, 0.00975574646,
          0.134276316, -0.0545183606, -0.29949671, -0.0606681816,
          0.0230361912, -0.116637215, -0.0908370614, -0.33669138,
          -0.096441187, 0.0387041233, 0.151011929, -0.0110198669,
          -0.273015857, -0.663903832, -0.000834054314, 0.389039099,
          0.397439152, -0.216300309, -0.179815739, 0.187883258,
          -0.0269224979, -0.488231838, 0.152425244, 0.250274897,
          0.232219294, -0.141565144, -0.096441187, -0.171090066,
          -0.534935117, -0.136621311, -0.193425745, -0.361461878,
          0.396061718, 0.236449033, 0.331828088, -0.279620647,
          0.28129375, 0.0980508402, 0.535878241, -0.713033915,
          -0.176581055, -0.234784618, -0.00334455096, -0.104916275,
          -0.438492686, -0.0673952699, 0.346929282, 0.200615108,
          0.25777173, -0.591949165, -0.332797438, -0.627045095,
          -0.484486014, -0.438304275, 0.238418847, 0.933514059,
          0.777388215, 0.164173931, -0.344986171, 0.0210914258,
          -0.235735565, -0.0859427825, 0.0800815597, 0.563924193,
          0.983112514, 0.956384838, 0.181178853, -0.283563048,
          0.0448249169, -0.166366994, -0.4046112, -0.41284433,
          0.0395401679, 0.309368253, 0.13057965, 0.133000687,
          -0.107094489, -0.0789681002, -0.0513801202, -0.127991006,
          -0.874378145, 0.110699072, 0.795792937, 0.633289874,
          0.435514957, 0.416179508, -0.0495352298, -0.343004376,
          -0.0768017918, -0.36709407, 0.0879718363, 0.114798389,
          -0.115064859, 0.299284607, -0.13610515, 0.261755198,
          -0.0581035577, -0.05207178, -1.06304049, 0.277913123,
          0.0710701868, -0.0682505816, 0.228171527, 0.246590227,
          0.143411249, -0.212535053, -0.176754594, -0.36709407,
          -0.148438111, -0.160867676, -0.117994957, 0.243268937,
          -0.0834031701, -0.111796796, 0.11061167, 0.372983038,
          -0.131173998, -0.334390372, -0.285445362, -0.127158314,
          -0.130218506, -0.247016475, -0.173530906, 0.0483539626,
          0.269500494, 0.511887848, 0.00227086642, 0.0839571878,
          0.211484298, -0.430068076, -0.168139249, -0.0960313082,
          0.0321236141, 0.0776898488, -0.154147863, -0.120682955,
          -0.126328126, 0.0560663342, -0.34525758, -0.109871745,
          -0.112376854, 0.0518010519, 0.0787219554, 0.377951473,
          -0.101775736, 0.0737550035, 0.265457153, -0.0517822132,
          -0.0438886546, -0.0930021182, -0.0313820094, 0.0155364154,
          0.343737423, -0.0120938485, 0.139747798, 0.35258472,
          0.0633772537, 0.0786607042, -0.317232162, -0.133836627,
          -0.259480536, -0.245696142, -0.0619191453, -0.114410706,
          -0.106017031, 0.112133801, 0.0780785158, -0.155226171,
          -0.043405056, -0.145717576, 0.103007644, -0.280308992,
          -0.176419005, 0.11843206, 0.0810467303, 0.0942096338,
          -0.0996438563, -0.180779353, -0.275928855, -0.0149569456,
          -0.0857494697, -0.0947280154, -0.372445405, 0.0958339199,
          -0.116422273, -0.148522496, -0.0552002676, 0.124738425,
          0.068211928, 0.266818136, -0.167345539, -0.27220872,
          -0.0596347488, -0.0426242463, -0.00930072553, -0.0515515059,
          0.0309218559, -0.010337187, -0.142091885, -0.228149071,
          -0.0950514153, -0.350783914, -0.0277380887, 0.130246282,
          0.0498497449, -0.0623118021, 0.436427951, 0.127287582,
          -0.0838295817, 0.00996094663, -0.0414039753, -0.226643756,
          -0.164371967, 0.101278082, -0.205722108, -0.01522501,
          0.0549016744, -0.161966786, 0.17906329, -0.297354907 ]
      - [ -0.0128188068, -0.49449271, 0.106182255, 0.0813374445,
          0.485659927, 0.262621701, -0.179804534, -0.12100485,
          -0.0990268141, 0.173191875, -0.586153567, -0.323574394,
          -0.0863174796, 0.110249326, -0.366148263, -0.385743976,
          -0.552869678, 0.217550203, -0.174622208, -0.528754056,
          -0.544685602, 0.281868219, 0.247058883, 0.474685997,
          -0.366805732, -0.642032981, -0.142286673, -0.568390369,
          -0.553387523, 0.295007348, 0.465315133, -0.325892657,
          -0.43574056, -0.839620531, -0.797745168, -0.257229179,
          -0.154685453, -0.4366436, -0.090969041, -0.125199795,
          0.753172219, -0.111363024, -0.383452773, 0.171413764,
          -0.0461348146, -0.0538330004, -0.0665804371, -0.0640930682,
          0.0185399856, 0.371766359, 0.123572096, 0.0907183662,
          -0.252993912, 0.00862384681, 0.316924125, 0.237593949,
          0.824669063, -0.00739489682, -0.598591566, -0.809529245,
          -0.889637113, -0.136560276, -0.228252769, 0.125622332,
          -0.474551141, -0.226778224, -0.152245939, -0.907706618,
          -0.294154853, 0.576857984, 0.100639842, -0.0632751286,
          0.168900415, 0.095089592, 0.0309069399, 0.263554007,
          0.834546387, -0.0610530935, -0.0858525932, -0.393647939,
          -0.0912942737, -0.288057566, 0.0536928214, -0.386432201,
          0.434354752, 0.210726008, 0.196384773, -0.272899836,
          0.135070547, -0.449265212, 0.0448330753, -0.194504604,
          0.100308493, 0.278707296, -0.252111048, -0.523930669,
          -0.106793553, -0.380791843, -0.494254678, -0.186524257,
          0.0206876323, -0.469352543, 0.225793093, 0.150005162,
          0.213581875, -0.284948915, -0.545491219, -0.17135416,
          0.204616353, -0.504125416, -0.637829661, -0.104027785,
          -0.211740896, 0.0788508803, 0.0484543145, -0.393621862,
          -0.0761652067, -0.306206793, -0.239030808, 0.0193621162,
          0.406882852, -0.412195861, -0.0727948993, 0.297325611,
          0.224679932, 0.00579214701, 0.638105452, 0.388140857,
          0.0704696402, -0.179191068, -0.211740896, -0.71915096,
          -0.276611656, -0.487628818, -0.360696733, -0.79948324,
          -0.304078072, -0.352555931, -0.138008818, -0.358177215,
          0.218685418, 0.525371194, 0.86998719, -0.78291446, 0.705970347,
          -0.0527145378, -0.0503417924, -0.32746318, -0.728483558,
          -0.868760824, -0.290975511, 0.267482996, 0.343712062,
          0.633039951, 0.155749768, 0.3127141, -0.373827934,
          -0.845858037, -0.37488851, 0.0781430826, 0.719270587,
          0.125850067, -0.123305403, -0.461169302, -0.366313517,
          -0.686046362, -0.490328103, -0.256312311, 0.45347774,
          0.812625587, 0.0702961758, 0.185349613, 0.500027716,
          0.493974924, -0.0442161448, -0.6340909, -0.863645375,
          -0.580693781, -0.71449393, -0.383912385, 0.668027163,
          0.18769151, 0.302026182, -0.279651761, -1.07344031,
          -0.311591834, 0.388080865, 0.764954209, 0.651867867,
          0.513206959, 0.158538163, -0.0276210364, -0.203857705,
          -0.523910165, -0.107177533, 0.332768619, -0.164440259,
          0.10981489, -0.739787996, 0.219861418, -0.071675688,
          0.0420035422, -0.0588705987, 0.11469616, -0.141439468,
          -0.166674241, -0.415975511, 0.0602129735, -0.362136662,
          -0.660547912, 0.103224166, -0.523910165, -0.044225473,
          -0.401494324, -0.0706237555, 0.0910379365, -0.247166127,
          0.391442925, 0.130139634, -0.0410708301, -0.121816128,
          -0.651134014, -0.28950572, -0.504568696, -0.249143183,
          -0.982563913, 0.226312667, 0.38404271, 0.215808585, 0.22615546,
          0.0271279234, 0.142413184, -0.00342249265, -0.580650568,
          -0.0486761853, -0.0038728863, -0.313994437, -0.0319119096,
          -0.346488178, -0.105410375, 0.0434854962, -0.389723241,
          -0.208172262, -0.217917338, 0.170240566, -0.0482507423,
          -0.0442801937, 0.317358524, 0.389404029, 0.251430362,
          -0.22118406, -0.143526837, -0.251858681, 0.0211646892,
          0.314200997, -0.282604516, 0.11848367, -0.0541024357,
          -0.0127044264, 0.00538369734, 0.276778996, -0.111228839,
          -0.066072464, 0.361584455, 0.069543913, -0.0982542709,
          -0.360622555, -0.299180478, -0.746354103, -0.0883342475,
          -0.0884485394, -0.245162979, -0.267143399, -0.226604462,
          0.132766202, -0.020540623, -0.303946167, -0.199830636,
          -0.0566642247, -0.0711727366, -0.756315351, -0.554944277,
          -0.0690025911, -0.0479951613, 0.284857839, 0.259283513,
          -0.365913808, -0.0649317279, -0.829482377, -0.354082018,
          -0.0248605274, 0.265322745, 1.25817168, 0.207576677,
          -0.0277009737, -0.263582736, -0.234061703, -0.496359974,
          -0.427482784, -0.520168304, -0.0658789203, 0.21266228,
          0.241196707, -0.411117673, 0.0386215635, -0.433682114,
          0.114557423, -0.707533777, -0.414168298, -0.0592706241,
          0.80764991, 0.183307558, 0.233533233, 0.0522696078,
          0.168500006, -0.305746198, -0.500856102, -0.223438323,
          -0.448795825, 0.547571898, -0.440241039, -0.0866641924,
          -0.0407240763, -0.212394476 ]
      - [ 0.0386359505, -0.10787838, -0.0643469989, 0.091693379,
          0.313241184, -0.118715681, -0.136198312, -0.0200734679,
          -0.370943725, 0.0688122511, -0.407856554, -0.107931182,
          0.0198401976, 0.0319058932, -0.0518154725, -0.301082581,
          -0.220280811, 0.0382596813, -0.119708702, -0.0511400774,
          -0.111831509, 0.536884785, 0.108213596, -0.128217712,
          -0.300045699, -0.119043209, 0.0629017055, -0.533376753,
          -0.216632202, 0.0245189983, 0.251486152, 0.0272046421,
          -0.310488611, -0.354826689, -0.21608384, 0.056391716,
          -0.184521362, -0.315086722, -0.0470224544, 0.00635634223,
          0.664320588, 0.149330646, -0.0925842002, -0.0330540463,
          -0.0861018673, -0.156062543, -0.056654837, -0.00967123639,
          0.0767391548, 0.361972868, -0.0399350077, -0.00434142444,
          -0.0614266805, -0.0815711468, -0.353708774, -0.153604165,
          0.242360339, -0.12956211, -0.521606028, 0.0107441535,
          0.255482644, 0.170359164, -0.0333141871, -0.020512756,
          -0.381012827, -0.259867162, -0.171609625, -0.763562441,
          -0.0652494803, 0.799031377, 0.499623477, 0.228486329,
          0.212159216, 0.176215962, -0.108198941, 0.166408315,
          0.588454723, -0.326495498, 0.0112710623, -0.151968613,
          0.239820808, -0.467513502, 0.143074602, -0.309553623,
          0.0662419125, 0.264458358, -0.10651084, -0.122053534,
          -0.213280797, -0.162875831, 0.222668245, -0.234274283,
          -0.269221574, 0.209129572, -0.0761419535, -0.381876767,
          0.32932207, 0.108928524, 0.331525743, -0.419237494,
          0.0329806507, -0.284997255, -0.0252052601, 0.157809958,
          0.172919676, -0.151174068, -0.382928193, -0.375522435,
          -0.149024308, -0.114131756, -0.516481161, -0.0142383762,
          -0.0650999397, -0.191698283, -0.268720269, -0.177863061,
          -0.023781769, -0.794598758, -0.0173602626, 0.0335532911,
          0.241924241, 0.200061023, 0.00170257722, 0.399625719,
          0.367010862, 0.0135156913, -0.0468940362, -0.06175166,
          -0.357301772, -0.232406333, -0.0650999397, -0.435869366,
          0.0642884299, -0.136508822, -0.0991010666, -1.05325818,
          -0.00133795035, -0.166778281, 0.167868778, 0.147400618,
          0.22975181, 0.780605733, 1.14379764, -0.518266976, -0.48133409,
          -0.0625771657, 0.31638521, -0.0381017923, -0.727155447,
          0.039992895, 0.690912068, 0.61067009, -0.183349535,
          -0.245167375, 0.315597624, 0.214759633, -0.233563453,
          -0.726827085, -0.110492066, 0.647103965, 0.787785292,
          -0.253626943, -0.889406919, 0.343665659, 0.455529213,
          0.258733571, -0.280669242, 0.388572097, 0.647582352,
          0.883622408, -0.642906249, -0.386423022, 0.8950122,
          0.640346944, 0.141033441, -0.202730656, -0.0872309357,
          0.0725335255, 0.0599155501, -0.723988116, 0.347252578,
          0.186634973, -0.0666546822, -0.0346783586, -0.63507098,
          0.160458148, 0.549642861, 0.570864499, -0.0468471162,
          0.0991230011, -0.0204087831, -0.430740178, -0.393866181,
          -0.324603707, 0.008681315, -0.13139075, -0.235126331,
          -0.38835144, 0.0560673028, 0.935789406, 0.525702834,
          0.197069585, -0.551736832, 0.227364287, 0.0211631842,
          -0.0346368663, -0.274492413, 0.092971772, 0.21900934,
          -0.262134045, -0.349812269, -0.324603707, -0.395257294,
          -0.570445001, -0.171476305, -0.126864016, -0.0484966151,
          -0.0984475762, 0.177418932, 0.105129622, -0.0156365652,
          -0.32609424, -0.0318292752, -0.408061713, -0.166875705,
          -0.464013755, -0.0357688628, 0.0671509951, 0.11860431,
          0.136746451, -0.107367367, -0.0810118541, -0.0612629019,
          -0.364084154, -0.347499073, -0.0585486591, 0.104031585,
          0.358498275, -0.100416884, -0.132136226, -0.00930044428,
          -0.289313197, -0.361753017, -0.156967118, 0.128780439,
          0.22719191, 0.153111458, 0.513805389, -0.0427767783,
          -0.173732385, -0.0861004591, 0.0881944001, -0.175868466,
          0.127438962, 0.354415566, -0.0387776643, -0.236411497,
          -0.0247422028, 0.0553180873, -0.169293001, -0.275958151,
          0.364929467, -0.172314048, 0.0607668906, -0.0806663781,
          -0.285123914, -0.306261718, 0.0215718783, -0.297057539,
          0.0460728295, 0.0446891412, -0.227977663, -0.072766073,
          -0.121388942, 0.211443961, -0.169963568, -0.0904588327,
          -0.382848978, 0.0798459873, 0.0856081992, -0.543661356,
          -0.253321588, -0.260986358, 0.113157757, 0.0132658267,
          0.169377178, -0.0986271426, 0.0866126642, 0.195957869,
          -0.0174612403, 0.124565475, 0.170199379, 0.34928295,
          -0.0545451418, -0.195462883, -0.436125249, 0.135708749,
          -0.177525699, -0.0218542274, -0.0151019776, -0.0527506582,
          0.101424679, -0.30264315, -0.420876443, -0.366933912,
          -0.444736242, 0.0956300795, -0.152009845, 0.115515649,
          -0.152478844, 0.607668042, 0.0326086022, 0.0980594456,
          0.0296155456, 0.108175568, -0.254660279, -0.323327452,
          0.0311092678, -0.139242843, 0.173596919, -0.202447206,
          -0.0498541296, -0.0905316547, -0.530294001 ]
      - [ -0.199832916, -0.444917887, 0.302672029, 0.311195612,
          -0.0662531629, 0.0719245821, -0.413363367, -0.259107053,
          -0.259452701, 0.196874231, -0.263430208, 0.153831974,
          0.160835937, 0.698090136, 0.00985597819, -0.909802735,
          -0.383732706, 0.13731651, -0.0268611424, -0.0672878549,
          -0.240471959, -0.01868896, 0.0910275653, 0.516648233,
          -0.150460094, -0.10127975, -0.136622429, -1.09269297,
          -0.0591776073, 0.475791544, 0.124228925, -0.530098796,
          -0.255522847, -0.668339789, -0.18452017, -1.12532854,
          -0.0690103918, -0.161544904, -0.0338853747, 0.18162331,
          0.357025743, 0.263040125, -0.402684093, 0.0709251016,
          0.0858405977, 0.0686114207, -0.0394840688, 0.137518093,
          0.263749361, -0.649465501, 0.225778282, 0.198353201,
          0.45827505, 0.0406347662, -0.276569843, 0.313749015,
          0.87174809, 0.339433283, -0.944590747, -0.496664643,
          -0.368368924, 0.0443887822, -0.578433454, 0.970103443,
          -0.429189384, -0.11856281, 0.228765383, -1.48651922,
          -0.0803525895, -0.135698766, -0.184464902, 0.485889435,
          0.310017139, 0.0312870443, 0.0923935845, 0.0741483122,
          0.0346245766, -0.235060498, 0.120457657, 0.268282384,
          0.0210265722, 0.189836562, -0.185040653, -0.333428264,
          -0.15616478, -0.0257374793, -0.156598106, -0.518367946,
          -0.14965491, -0.103390314, 0.579476774, -0.141469523,
          0.0440427251, 0.147411793, 0.122084558, -0.0288298558,
          -0.571171165, 0.163942739, 0.0262119472, -0.185842827,
          -0.155979857, -0.36970371, -0.115943626, -0.0726005957,
          0.337233871, -0.267467141, 0.28852582, 0.00593974441,
          -0.369336694, 0.13595809, -0.24813284, 0.371476591,
          0.0561661758, 0.0916678086, -0.05077051, -0.0438741818,
          -0.703359187, -0.836148679, 0.541369855, 0.715266526,
          -0.042475082, -1.08053505, -0.648793221, 0.270587862,
          0.668254793, -0.84729898, -0.0106665185, 0.196146533,
          -0.0311508477, 0.432411015, 0.0561661758, -0.279732645,
          -0.237667546, -0.181235686, -0.481443107, -0.0572057217,
          0.0998392478, -0.356070101, -0.715632856, -0.744151175,
          -0.291731685, 0.73750788, 1.15685952, 0.165175661, 0.402853668,
          0.529511333, 0.687318325, 0.0148482583, -1.12486327,
          -0.829226673, -0.11726857, 0.231510818, 0.134118497,
          0.908430636, 0.186222702, 0.0390347876, 0.0911955759,
          -0.826114118, -0.210121602, -0.432782561, -0.253384501,
          0.664503038, 0.679631948, 0.129175574, 0.340336084,
          -0.405936748, -1.0681529, -0.498617262, 0.0466825552,
          0.188960671, 1.07827008, -0.242444694, 0.223325506,
          0.247835338, 0.343772709, 0.0245663244, -0.159009144,
          -1.28984213, -0.798731625, 0.248403996, 0.521261156,
          0.323581934, 0.301522225, -0.0849250704, -0.0245018564,
          -0.121046364, -0.581787109, -0.22759527, 0.118197098,
          -0.0754854903, 0.336604565, 0.256385922, 0.0763249397,
          -0.0588620082, 0.0404365882, 0.0063060238, 0.141072214,
          -0.334475309, -0.409424573, 0.446465969, 0.200550511,
          -0.357908934, 0.186277166, 0.143341348, -0.133100852,
          -0.19082804, -0.0542392358, -0.16897361, 0.228390247,
          0.379881918, -0.32025978, -0.190953717, 0.161804587,
          -0.040328633, 0.0254282523, -0.226599306, 0.477968901,
          0.382178038, 0.140114456, -0.256169915, -0.147071123,
          -0.351101965, -0.254101485, -0.423779696, -0.123158909,
          -0.117834233, 0.0368007012, 0.0210942999, -0.229020223,
          -0.392344892, -0.265504241, 0.680467427, -0.162611187,
          -0.278733373, -0.398171663, 0.282895565, 0.23112531,
          0.00207621441, -0.364302337, -0.534770608, 0.111019045,
          0.0319166519, -0.508996665, -0.0974654779, 0.280851305,
          0.349330038, -0.0293290596, 0.460761964, 0.034000732,
          0.000567272189, -0.348278731, -0.0730884299, -0.0906473249,
          -0.339188278, 0.095726788, 0.00392011041, -0.483009964,
          -0.269177824, -0.0732707679, 0.0159471221, 0.274610847,
          -0.548334658, -0.673534513, -0.592485309, 0.0334603712,
          0.458522141, -0.0284170639, -0.464486599, -0.166755512,
          0.00911233481, 0.00804717932, -0.356409431, -0.184391573,
          0.22389321, 0.210925967, -0.119399369, 0.130205303,
          0.420962662, 0.0315191448, -0.0168671925, 0.0563032627,
          -0.30341506, -0.262987673, 0.386642933, -0.056471251,
          0.334162027, -0.141153619, 0.0315191448, -0.300466537,
          -0.195610479, -0.188197359, -0.0988618881, 0.788848817,
          0.431702018, 0.294058263, 0.119459957, 0.0678706989,
          -0.191389441, -0.118647799, -0.00977987889, -0.25032419,
          0.0881560072, 0.649005294, -0.0189554691, -0.0022228749,
          -0.261622071, -0.0194865484, -0.00127006602, -0.0437557362,
          -0.502604902, 0.444211394, 0.283285975, 0.285074145,
          0.00862129498, 0.148865312, -0.0913214907, -0.113952845,
          -0.222490922, -0.512154222, -0.0373330228, 0.318643034,
          -0.194467396, -0.0114414264, 0.0093376413 ]
      - [ -0.296108961, -0.107126981, 0.387332052, -0.273011595,
          0.451242208, -0.333666205, -0.26693064, -0.0731644258,
          -0.212862924, 0.248521894, -0.10623154, 0.0275076348,
          -0.185200989, 0.267026305, -0.225860551, -0.419446081,
          -0.2850191, 0.233658865, -0.219580978, -0.737691343,
          -0.614533186, -0.204941213, 0.272246301, 0.0211751107,
          -0.398864418, -0.371334672, -0.146878555, -0.671277404,
          -0.634286642, -0.17345731, 0.133462191, 0.126136467,
          0.102476738, -0.251246899, -0.304156125, -0.198840901,
          -0.296888888, -0.394387811, -0.121540919, -0.184209108,
          0.565388858, -0.117863022, -0.529013276, -0.164655179,
          -0.188387841, -0.203373611, -0.312203139, -0.254258931,
          0.0646343231, 0.468822002, 0.061764244, -0.294428408,
          -0.0562924296, -0.169320643, -0.661661983, -0.170168966,
          0.255959809, 0.216164783, 0.0676418394, 0.154975414,
          0.000135600116, 0.119256936, -0.690600038, -0.559274971,
          -0.0310446247, 0.0870987475, 0.758961499, -0.107534088,
          0.295793861, 0.406296641, -0.00625945115, -0.32125923,
          -0.0365598239, -0.0270128436, -0.367132515, -0.0800610706,
          0.634494364, -0.114517145, -0.421873093, 0.121968202,
          -0.0735635757, -0.0815390795, 0.133746952, -0.145915851,
          -0.00648681726, 0.319361717, -0.229398966, -0.267655939,
          -0.0331235379, -0.301255077, 0.244656354, -0.26491946,
          -0.190250874, 0.371405661, 0.133518845, -0.278142005,
          -0.237971902, 0.118756421, -0.0792360529, 0.206612915,
          -0.311085671, -0.474443406, -0.409289539, 0.119245991,
          -0.212057456, -0.474209249, -0.322268397, 0.0349888802,
          -0.139811322, -0.417524278, -0.624553621, 0.0352851748,
          -0.240926489, -0.195993319, -0.263647944, -0.243072554,
          0.0161648169, 0.0283203796, -0.105190881, 0.0145580936,
          0.14520292, -0.85814476, 0.0110994289, 0.62127459, 0.438457668,
          0.457808107, 0.0888342783, 0.226665273, 0.0528810769,
          0.0494921505, -0.240926489, -0.308011353, -0.364818573,
          -0.363201737, -0.245083421, 0.100605898, 0.30267486,
          0.0666476563, -0.407349467, -0.949452281, -0.390290767,
          0.0879121497, 0.405122042, 0.433380514, 0.283752143,
          0.234730303, 0.208579898, -0.0889863893, -1.26966977,
          -0.169848219, 0.133385763, 0.630841732, 0.192120597,
          -0.0475157835, 0.283390015, 0.397490799, 0.207115427,
          -1.06293857, -0.272206575, 0.142900199, 0.580746591,
          -0.272329986, 0.414163858, 0.053897392, 0.0177423358,
          -0.289620936, -1.28008008, -0.690718949, 0.018728897,
          0.270160675, 0.57157588, -0.25868237, 0.39704591, 0.780885041,
          0.336304247, -0.848212123, -0.244744912, -0.517291307,
          0.0318206623, -0.429067701, 0.679552376, 0.289136648,
          0.365090728, -0.0103677465, -1.22076619, -0.40352428,
          0.456330299, 0.713380635, 0.0416963734, 0.300161779,
          -0.177119121, -0.316610396, -0.57647568, -0.56798327,
          -0.311536819, -0.158909082, 0.0263211615, -0.192324132,
          -0.189262137, 0.299325168, 0.394230068, -0.226357266,
          -0.761130154, 0.250826359, 0.0285157729, 0.137617067,
          -0.00966833159, 0.183393955, -0.0317273587, 0.0956306607,
          -0.0892763287, -0.56798327, -0.0988524184, -0.0832043514,
          -0.0126288775, 0.225538254, 0.0679615512, 0.116138972,
          0.127037108, -0.0363338143, -0.0383741111, -0.116479628,
          -0.33758831, -0.277748674, -0.281313956, -0.607749283,
          -0.0947169438, -0.0917787403, -0.36060977, -0.571563363,
          -0.345936507, 0.257002443, -0.14770101, -0.110089034,
          -0.444511235, 0.343494415, -0.012112556, 0.16380249,
          -0.101986565, -0.187101811, 0.305245906, 0.177979007,
          -0.186337307, -0.302324086, 0.193463847, 0.0815810636,
          -0.00645025261, 0.451417208, 0.144781128, 0.149191111,
          -0.0141424667, 0.00371490838, -0.240618035, 0.0127754156,
          0.1926658, -0.00105803413, -0.592707455, -0.359651446,
          0.112482704, -0.260217279, 0.192776248, -0.431070596,
          -0.180374593, 0.595738888, 0.362610698, 0.251744121,
          -0.13295126, 0.0916764215, 0.036940258, -0.113763027,
          -0.112963818, -0.132753655, -0.151126117, 0.190331459,
          0.391786844, -0.0290122703, -0.428209215, -0.248325422,
          -0.0657656267, -0.0659513026, -0.62891835, -0.370871544,
          0.330483526, 0.375505298, -0.0625880808, -0.102084614,
          -0.00151862984, -0.0601488948, -0.492317349, -0.422321856,
          -0.185237631, -0.0422087349, 0.898806512, 0.250258714,
          0.118772373, -0.05266767, 0.119860545, -0.0551059768,
          -0.261026591, -0.232572347, 0.0376726985, 0.15406096,
          0.509032488, -0.188679427, -0.139915198, -0.00347905862,
          0.233129412, -0.687032938, -0.554900706, 0.0357976183,
          0.440250218, -0.178537354, -0.190452904, -0.187008321,
          0.193652198, -0.278728485, -0.480238974, -0.534970105,
          -0.366262794, 0.180576444, 0.096949853, -0.218307927,
          -0.354632944, -0.239208385 ]
      - [ -0.144682422, -0.0845962912, -0.0974418297, -0.121797204,
          0.599145472, -0.134415001, -0.0905809477, 0.0327525362,
          0.0247121956, 0.182773843, 0.101452842, -0.225821316,
          0.0531258993, -0.127637789, -0.212842032, -0.290697694,
          -0.107933603, 0.0824568793, -0.322473317, -0.0535459258,
          -0.117729127, -0.257021308, 0.123287596, 0.375724643,
          0.0337247588, -0.0719322711, -0.297392905, -0.35621053,
          0.194684654, 0.348369807, 0.355017841, -0.801120281,
          -0.152003571, -0.29613179, -0.193332925, -0.245767921,
          0.0474296883, -0.131629765, -0.224928677, -0.261504412,
          -0.0360276811, -0.026493147, -0.35844785, 0.0226293858,
          0.135401249, 0.0744616911, 0.0307547841, -0.0153295873,
          -0.0388253592, 0.0419788063, -0.00262528006, -0.0365802422,
          -0.218398273, 0.171803758, 0.239454851, 0.354954869,
          0.760395586, 0.103284009, -0.507110953, -0.517920315,
          -0.528407335, -0.292680383, 0.0704335049, 0.351051599,
          -0.286036909, 0.0501773842, -0.141120687, -0.327230692,
          -0.25955835, 0.610892415, 0.311022967, 0.312883079,
          0.179193854, 0.0365499705, -0.0461722538, 0.309118748,
          0.650420725, -0.00812881161, 0.180314526, -0.457069635,
          0.0568273775, -0.321681291, 0.071235925, -0.0509792753,
          -0.00124310772, 0.419402599, 0.118806295, -0.167440921,
          -0.518590271, -0.352437079, -0.294460773, -0.601800501,
          -0.507122099, -0.0757595822, 0.219527483, 0.167207271,
          0.533472359, 0.124754645, -0.0014473499, -0.230499387,
          -0.157158569, -0.32954061, -0.155555218, 0.152404264,
          0.337508082, -0.35140565, -0.466251224, -0.149578318,
          -0.0293111634, 0.201452285, -0.0246419832, -0.187454551,
          -0.220338911, -0.0851693451, 0.0803895369, -0.0419822931,
          -0.0971265957, -0.324027926, 0.655788064, 0.643051922,
          0.302179158, -1.20793962, -0.289303601, 0.313606501,
          0.0737437382, -0.0884804204, -0.00168317638, 0.283596903,
          0.266686589, 0.255319118, -0.220338911, -0.609922171,
          -0.368444473, -0.154693559, -0.288629711, -0.298827171,
          0.358513057, 0.0681190938, -0.338921458, -1.07531154,
          0.0136618884, 0.7625857, 1.02551901, -0.232931048,
          0.0131119778, -0.170156971, 0.42430672, 0.113303266,
          -0.446296543, -0.108688727, 0.129306898, 0.174052373,
          0.272134572, -0.253082335, -0.617406666, -0.493412256,
          -0.451044083, -0.030605657, 0.0529101975, 0.68896842,
          1.0639962, 0.454962939, -0.310258865, -0.647647917,
          -0.355120122, -0.378040195, -0.0568607748, 0.325596929,
          0.873938143, 1.2065202, 0.362329781, -0.187773511,
          -0.455638289, -0.563131928, -0.37630865, 0.0982569829,
          -0.0596301705, 0.389325112, 0.439625382, 0.150569782,
          -0.316419959, -0.339622527, -0.708698809, -0.729234338,
          -0.418045193, 0.0800733715, 0.971570373, 0.921956062,
          0.334682465, 0.282605052, 0.134561881, -0.549042523,
          -0.294214875, -0.306599826, -0.0938588381, 0.145532757,
          -0.0520688817, 0.038914144, -0.305761129, 0.357721359,
          -0.0732444003, -0.373711199, -0.0696962848, -0.166937321,
          0.0421420224, -0.14224261, 0.147563085, 0.170690566,
          0.190064371, -0.371236175, -0.151182443, -0.306599826,
          0.0911605209, 0.00714499271, -0.153241828, 0.131070629,
          0.193793103, 0.122195616, 0.399419963, 0.198862985,
          -0.144563362, -0.188624337, -0.40731436, -0.387609333,
          -0.198112175, -0.525521159, 0.124218002, -0.0887323171,
          -0.236125097, -0.176754743, -0.163989618, 0.151540205,
          0.167865336, -0.512423337, -0.308521152, 0.108197957,
          0.307510734, 0.375942796, -0.262991965, -0.269858032,
          -0.137035117, -0.266088068, -0.489764512, -0.11624112,
          0.160293937, -0.0790164843, 0.230769858, 0.326225072,
          0.00733109284, 0.293456137, 0.0160977803, -0.0978307053,
          -0.555490553, -0.150196195, -0.361137658, -0.304655313,
          0.141669452, -0.158933371, 0.136657968, 0.361007482,
          -0.041913081, 0.0874394104, -0.146787196, 0.0502433516,
          -0.219612569, 0.0790951401, -0.208138376, 0.0106474096,
          0.0171171315, 0.436929494, 0.0867687166, -0.00349133834,
          -0.444154412, 0.00177456962, 0.208003119, -0.259022862,
          0.0443435833, 0.0609218106, 0.0652966276, 0.0897086859,
          0.0333170071, -0.119434357, -0.211163417, 0.155796915,
          -0.122555077, -0.464827985, -0.294180274, 0.0980596989,
          0.145712703, -0.0384798273, 0.374924988, 0.145034403,
          0.522811592, -0.156448632, -0.19957228, -0.374494076,
          0.484124452, 0.234764814, -0.174202576, 0.0322420932,
          0.0468747094, 0.0490553416, -0.123923607, -0.278674155,
          -0.33034119, -0.191107899, 0.00889741909, -0.167999148,
          0.104136318, -0.235058382, 0.410430461, 0.12002252,
          -0.0964343324, -0.0171531364, 0.0347578935, -0.392898709,
          -0.403578252, -0.156605735, -0.290385067, 0.040808145,
          -0.185134083, -0.0945600122, -0.0247468762, -0.298835427 ]
      - [ -0.0966658667, -0.277345628, 0.30801481, -0.0956560597,
          0.500949383, -0.140992448, -0.174821779, -0.176283032,
          -0.0814252272, 0.131311178, 0.106692411, -0.11718794,
          -0.114364013, 0.22867623, -0.241330341, -0.424331307,
          -0.398700804, 0.0890725628, 0.0229168255, -0.441574574,
          -0.462528944, -0.046990633, 0.1300589, -0.123384587,
          -0.0894550234, -0.50558579, 0.20426327, -0.66172713,
          -0.756518364, -0.268162727, 0.116916545, 0.255684018,
          -0.251079082, -0.0394031033, -0.309405297, -0.292681336,
          0.00776213547, 0.0113398796, 0.0945157334, -0.0485929027,
          0.663043678, -0.0681082606, -0.444618493, -0.280400634,
          0.0337921493, 0.0502052605, -0.523407757, -0.111768246,
          0.104234934, 0.436773747, 0.00621749647, -0.19031553,
          -0.223863229, 0.0502052605, -0.334358156, -0.051060874,
          0.690050602, 0.194308445, -0.259071141, -0.299211711,
          -0.200095594, -0.280224472, -0.567852497, -0.353219986,
          -0.807352424, -0.321047187, 0.221673563, -0.455212921,
          0.120203592, 0.50642246, 0.138974801, -0.437011629,
          0.080429405, -0.114074342, 0.0446991995, 0.293308645,
          0.584289014, -0.0389575809, -0.356067747, -0.132518411,
          0.0948866233, -0.167227522, 0.087713927, -0.263117433,
          0.158160761, 0.37939164, 0.144904643, -0.097494483,
          -0.0742464662, -0.240006492, -0.0432478413, -0.22541526,
          -0.0272279475, 0.410725534, -0.253996193, -0.178856283,
          -0.0610118434, -0.226026714, -0.33032158, -0.261265159,
          -0.167065501, -0.390363753, -0.261797309, 0.262969047,
          -0.0276690312, -0.259717315, -0.22968547, -0.12241973,
          0.17031692, -0.0905237496, -0.398860991, -0.173507288,
          0.0449374393, -0.328287631, -0.0584476888, -0.2083202,
          0.0459733866, -0.176135689, -0.105629325, -0.18387717,
          0.0310604181, -0.577538431, -0.171803549, 0.564877689,
          0.372971833, 0.0372047946, 0.264825433, 0.293062687,
          0.248349547, -0.0552257858, 0.0449374393, -0.538044751,
          -0.562141776, -0.117139466, -0.188481361, -0.339327633,
          0.309200823, -0.101922825, -0.307965547, -0.780080914,
          -0.130396292, 0.281001985, 0.507535458, -0.350334436,
          0.348040432, 0.229668871, 0.430782974, 0.068801254,
          -1.26913297, -0.386025637, 0.222307697, 0.222589284,
          0.139548987, 0.171798646, 0.2115141, 0.177981123, -0.115048081,
          -0.813867211, -0.186484769, 0.687755346, 0.481655359,
          0.268066108, -0.234911621, 0.118839398, -0.0287201274,
          -0.164289176, -1.13439977, -0.181605592, 0.43919006,
          0.458381683, 0.139213756, -0.0643557236, 0.452985674,
          0.319713354, 0.0179667491, -0.760654092, -0.591374755,
          -0.32565859, -0.0286690127, -0.275426477, 0.559160531,
          0.315214753, 0.186577067, -0.254406601, -1.06301141,
          0.142710343, 0.85759145, 0.545812249, 0.457476199, 0.228961781,
          0.0218180772, -0.194637015, -0.579136789, -0.49483344,
          -0.0921944603, 0.0933236778, 0.0293815546, 0.14026171,
          -0.080384858, 0.343902886, 0.129406378, -0.365077645,
          -0.684126318, 0.502643466, 0.276322246, 0.355807632,
          0.0405103341, 0.0749483481, 0.0351117551, -0.419313073,
          -0.454537392, -0.49483344, 0.218646526, -0.3028377,
          -0.164700717, 0.0239886213, 0.0802214891, -0.106588773,
          0.00757626956, 0.00063602993, 0.0419636182, -0.201430172,
          -0.309624225, -0.263954908, -0.0712546855, -0.871842146,
          -0.0542899184, -0.0709804818, -0.0798839331, -0.0118848123,
          0.00139526185, 0.0883617476, -0.0819576755, -0.863536358,
          -0.209208697, -0.234531283, 0.0163025707, 0.0559869371,
          -0.214927465, -0.104876578, 0.206007704, -0.0803214535,
          -0.222321838, -0.114977963, 0.0589111224, -0.00835639331,
          0.0838158429, 0.478523076, -0.104089454, 0.239525095,
          -0.00732024387, 0.0311861672, -0.355450034, -0.0404163301,
          0.151616693, 0.0058763288, -0.122564226, -0.032771755,
          0.136321634, -0.297587693, -0.27683726, -0.164549217,
          -0.356441706, 0.407898247, 0.123955958, -0.204205126,
          -0.451480478, -0.52186507, -0.317533314, -0.235128254,
          -0.0109296748, -0.0177554972, -0.0517786294, 0.0775514245,
          0.308012754, -0.268383026, -0.110594831, -0.118268363,
          0.0111234905, 0.0138516454, -0.433694065, -0.0332953744,
          -0.122879885, 0.149679318, -0.288082749, -0.175250784,
          -0.158093348, 0.0138516454, -0.222143814, -0.390739471,
          0.164724573, 0.128837645, 0.358961165, 0.161994502,
          -0.146869004, -0.0796216056, 0.084894456, 0.0803073272,
          -0.271234363, -0.479333729, -0.24340342, 0.0701629147,
          0.286515445, -0.271290332, -0.296883464, -0.293405533,
          -0.0431991816, -0.289766878, -0.00685919123, 0.0302853063,
          0.522718132, -0.147885308, -0.0246147569, 0.106445253,
          0.00923620164, -0.236577988, -0.448352277, -0.194153637,
          -0.1897019, 0.0663298666, 0.0868681073, -0.284093291,
          -0.110952541, -0.271759331 ]
      - [ -0.282814592, -0.0341994315, -0.111401819, -0.0490327701,
          0.366948426, 0.0960755348, -0.0674827024, -0.0527669154,
          -0.256424248, 0.0590791069, 0.0519943982, -0.042441126,
          -0.0277221389, 0.0639408305, -0.215364009, -0.162274137,
          0.0383651108, 0.0616419166, -0.127307057, -0.521409035,
          -0.857061923, -0.240157634, 0.0787621513, 0.470055878,
          0.0717452392, -0.0986874178, -0.0442834906, -0.528080702,
          -0.355021954, 0.0251420476, 0.325361907, 0.110754788,
          -0.0135870324, -0.0383822136, -0.106291845, -0.543862939,
          -0.0271309726, 0.0320025757, 0.159571141, 0.165374324,
          0.379893929, -0.310372144, -0.296964914, 0.223228201,
          -0.0082722269, 0.0231681634, -0.0883877426, -0.167291269,
          0.137619674, 0.113679051, -0.203704029, -0.210948303,
          -0.129402995, 0.0231681634, 0.0166989714, 0.619342148,
          1.07195294, 0.626488447, -0.178671464, -0.373352557,
          -0.511448979, -0.412435174, -0.418629676, 0.122723334,
          -0.231456295, -0.14652513, 0.106085934, -0.796115696,
          -0.217685923, 0.223199487, -0.345437586, -0.113070264,
          0.153580099, -0.00294183637, -0.247931421, 0.197439551,
          0.22681801, -0.134263948, -0.0647918284, 0.0232268069,
          0.062541306, -0.214472398, 0.0871454477, -0.171726391,
          0.344380319, 0.25388819, -0.20697844, -0.130821884,
          -0.333837956, -0.0354304984, -0.035561353, -0.24846673,
          -0.0859886929, 0.168982208, -0.602315009, -0.148660332,
          0.134548038, 0.176105201, -0.253766894, -0.140126705,
          -0.113515079, -0.388172001, -0.0730369389, 0.195883989,
          -0.00971386582, -0.173564792, -0.484557539, -0.530531526,
          0.000786500459, -0.22438325, -0.465935141, -0.0248482041,
          -0.153479978, -0.146350294, 0.302702188, 0.0380987525,
          -0.166737795, -0.187539905, 0.0721609294, 0.282293111,
          0.424010545, -0.627194822, -0.244491503, 0.546478689,
          0.12800099, -0.409681946, 0.38557598, 0.0846686363,
          0.163322255, 0.0606462993, -0.153479978, -0.559256077,
          -0.286169499, -0.393992811, -0.2311351, -0.135668382,
          -0.0384238176, 0.108712353, 0.158501074, -0.984900534,
          0.0555882081, 0.391018927, 0.317278355, -0.467145145,
          0.557520866, 0.433077365, 0.579033375, 0.105866231,
          -1.11900282, -0.555854023, -0.298546493, -0.257445276,
          -0.0475055985, 0.538606644, 0.17252633, 0.107308663,
          -0.614162862, -1.01778758, -0.165394142, 0.246759698,
          0.494719565, 0.757974148, 0.048958037, 0.00167531183,
          -0.0995030403, 0.099251084, -0.608063698, 0.135979503,
          0.380541742, 0.481402963, -0.230855688, -0.087317653,
          0.184473976, 0.0555878319, -0.0315231942, -0.958519161,
          0.0278421976, 0.096211046, 0.0245102476, -0.126394704,
          0.404259026, 0.169469938, 0.271027178, -0.248290837,
          -1.20475626, 0.14695245, 1.03228009, 0.744860232, 0.83126092,
          0.0566365905, -0.300017506, -0.390539259, -0.529940128,
          -0.204003692, -0.00748674944, 0.207271352, -0.368423074,
          -0.048692815, -0.244919449, -0.00863933936, -0.659266114,
          -0.060675893, -0.0536103286, 0.537968636, 0.514617741,
          -0.109490402, -0.128373921, -0.172319397, -0.444544286,
          -0.917237818, -0.48542279, -0.204003692, -0.155468911,
          -0.140217155, -0.457324475, -0.31940496, 0.584704995,
          -0.118577138, 0.00749757234, 0.208394349, -0.142427549,
          -0.0341411531, -0.134026319, -0.283033401, 0.123215981,
          -0.191657454, 0.0257552005, -0.152110428, 0.34114632,
          0.0235670079, 0.226750091, -0.113778926, -0.220175534,
          -0.215419278, -0.180036291, -0.273367465, -0.176862299,
          0.0172133408, -0.19101043, 0.162846848, 0.0322555192,
          0.0348128825, -0.21281302, -0.0938799605, 0.00569585385,
          -0.386128336, 0.160096496, 0.188716322, 0.0701112002,
          -0.255138338, 0.118587106, -0.0495319813, -0.225357518,
          0.378208965, 0.244217232, 0.580539823, 0.676659882, 0.47804296,
          0.269327819, -0.0610290244, -0.282671422, -0.301775277,
          -0.00431648782, 0.0773035958, 0.571957052, 0.377686113,
          0.294504732, 0.00574828265, -0.113007471, -0.50657326,
          -0.216742814, 0.076631248, -0.362762421, -0.0540864356,
          0.28640312, 0.0582792461, -0.312835217, -0.157301813,
          -0.210137859, -0.215560958, -0.409567326, -0.153587997,
          -0.198331639, 0.161242709, -0.0144886784, -0.177809551,
          -0.149503455, -0.206970245, -0.102303684, -0.377660513,
          -0.328484625, 0.232699245, 0.846491396, 0.252201736,
          -0.0027730735, -0.0808163211, -0.167927936, -0.165109426,
          -0.24610512, -0.650438666, -0.328220099, 0.109353386,
          0.425110877, -0.22682479, -0.155645147, -0.430765063,
          0.0298661459, -0.66122824, -0.185084164, -0.151616707,
          0.396408349, -0.0714548007, -0.130485818, 0.218607247,
          0.0606817864, -0.30553475, -0.673645794, -0.16645138,
          -0.301714242, 0.168883845, 0.154509097, -0.200286806,
          -0.00112696108, -0.0838453919 ]
      - [ 0.270503819, -0.108045161, 0.217066377, 0.150869682,
          0.208005384, 0.242185786, -0.0178154893, -0.27887705,
          0.195492327, -0.0186729673, -0.00910544768, 0.0460972786,
          0.111862764, 0.0828594118, -0.0459740125, -0.247499019,
          0.0056916466, 0.0349323414, -0.0123021137, -0.355888158,
          -0.316492498, -0.340340018, 0.0178985596, 0.186514005,
          0.216605499, -0.126768112, 0.0357726514, -0.603443503,
          -0.184932113, 0.310477227, -0.0508672372, -0.222093761,
          0.00340461219, -0.312260479, -0.207229659, -0.661650538,
          0.26548931, 0.151731193, -0.125346959, 0.183491349,
          0.312656641, -0.0238186885, -0.330743968, 0.33830902,
          0.241900653, 0.279350221, 0.212587506, -0.19123517,
          0.00294493837, -0.023547912, -0.213162154, -0.0819001421,
          0.0561965667, 0.322926551, -0.644391596, -0.243247524,
          -0.0466274284, -0.124976195, 0.126343325, -0.123285897,
          -0.556536436, -0.0683899969, -0.0725200698, -0.488380581,
          -0.486339688, -0.436284214, -0.135400251, 0.0609755293,
          -0.0585464574, 0.0527794883, -0.0313951187, 0.0286098272,
          -0.10176114, -0.0851807296, -0.222197011, -0.234198853,
          0.191570744, -0.246944651, 0.0412167236, -0.103490666,
          -0.0101142349, -0.0909740105, 0.0948456079, -0.0822426528,
          -0.0499813482, 0.30805704, 0.10625045, 0.529505432,
          0.403540581, 0.0652512833, -0.647696912, -0.0918271989,
          -0.320776343, -0.203355268, -0.58508867, -0.0755197182,
          0.291270435, -0.0207439736, -0.59500134, 0.120963886,
          0.107172765, -0.0919684246, -0.234203711, 0.193736225,
          -0.00303752464, 0.278356314, -0.144442156, -0.362667382,
          0.385601044, -0.137355879, -0.135284677, -0.660694242,
          -0.176214933, 0.140215635, 0.10975977, 0.259587556,
          0.0797492117, -0.622138858, 0.186006919, 0.882484674,
          0.0224936064, -0.597231507, 0.205512777, 0.00280896667,
          -0.0606718995, -0.353254169, 0.355615169, 0.0817242488,
          -0.0152802244, -0.299086183, -0.176214933, -0.16828467,
          -0.39372918, 0.0169778932, -0.0403774977, -0.559612393,
          0.20292227, 0.560042441, 0.718021572, -0.196555436,
          0.348735005, -0.297228158, -0.20697245, -0.627153993,
          -0.0949620605, -1.07418263, -0.686136127, -1.06610024,
          -0.530115426, -0.0703163743, -0.075120151, 0.0144660734,
          0.874300241, 0.153039321, -1.10949123, -0.94669503,
          -0.756767154, 0.0503483303, 0.125087187, 0.365058184,
          0.720935345, 1.27345371, -0.276457459, -0.812676311,
          -0.96503073, -0.443334281, 0.101755008, 0.296909481,
          0.111285418, 0.788347125, 0.612984419, 0.0793048739,
          -0.416872263, -0.778728604, -0.855324924, 0.027370682,
          0.361046731, 0.161094904, 0.815184772, 1.24984205,
          -0.165279135, -0.192165822, -0.00315194135, 0.12311402,
          -0.844730675, 0.201147825, 0.521541238, 0.404212594,
          0.341054171, 0.444454879, 0.205429509, 0.125322729,
          -0.153477132, -0.243218556, -0.392381251, -0.0770276785,
          -0.24897331, -0.00476380112, -0.115311414, -0.0827214643,
          -0.688095987, -0.113050833, -0.814744532, 0.407741964,
          0.291449934, 0.325403273, 0.77782011, 0.170358896,
          -0.00289543299, -0.23809585, -0.126050383, -0.243218556,
          -0.681567192, -0.0360259973, -0.0191972181, 0.435350865,
          0.0834943056, -0.125718966, -0.024592381, -0.254715949,
          -0.11678379, -0.247097522, -0.487998456, -0.144176736,
          -0.0347895771, -0.166086406, -0.460766912, -0.0356393456,
          0.380310714, 0.403344631, -0.0538489446, -0.754066765,
          -0.380499095, -0.563208401, 0.0308103561, 0.0419922769,
          -0.0311860535, -0.360248059, -0.0194587726, 0.132552505,
          0.0893741399, 0.367940843, -0.110983863, -0.059898831,
          -0.146322832, -0.153875127, -0.0717521831, 0.0751752853,
          0.156252354, -0.134469986, 0.443040133, -0.00624573091,
          -0.435826093, -0.438910663, -0.28315863, 0.335532516,
          0.592253089, -0.103466384, -0.34370479, 0.227378428,
          -0.129029676, -0.0401203148, 0.00347912638, -0.460317552,
          -0.118547559, -0.295022607, -0.380483866, -0.29588002,
          0.258878767, -0.0814044997, 0.280720353, -0.13544938,
          -0.0676028654, 0.0717358813, -0.0341401547, -0.123709075,
          -0.55158478, -0.0183881372, 0.255930483, 0.280720353,
          0.193693757, -0.122710504, -0.278323591, -0.112085648,
          -0.40343678, -0.647963583, -0.350376248, 0.280720353,
          -0.843420982, 0.0284195375, -0.291663885, -0.137874559,
          -0.344388038, 0.0656194538, -0.11419487, 0.141047463,
          -0.26461032, -0.342574239, 0.283994526, 0.162201583,
          -0.0441744626, -0.0184353292, -0.0784373283, -0.274979174,
          -0.0296774805, -0.10425359, -0.164750904, 0.292517632,
          0.0396386199, -0.209500775, 0.149291188, -0.124715254,
          -0.201698437, 0.0852809548, -0.135613352, -0.171064124,
          0.148233563, 0.201545194, -0.32878226, 0.232250631,
          0.352415353, 0.00228268653, 0.362613797, -0.187292367 ]
      - [ 0.286389172, -0.16029036, 0.301492393, 0.482740819,
          0.565827072, -0.0833367407, -0.308787525, -0.122006349,
          0.153228343, 0.0869925991, -0.0311817769, -0.425002337,
          -0.17969279, 0.485720515, -0.136085346, -0.0837861821,
          0.310155153, 0.128316909, -0.610790133, -0.447436929,
          -0.148741111, 0.150801316, 0.210811645, 0.0531919748,
          -0.336741716, -0.0410587899, -0.12451148, -1.01958477,
          -0.105055057, 0.312804848, -0.0723530576, -0.300858587,
          -0.244462445, -0.367869109, 0.0220739897, -0.395033836,
          0.216003358, 0.336720467, -0.552116036, -0.272256047,
          0.552937567, 0.242425635, -0.277832687, 0.513707221,
          0.213221937, 0.174407259, 0.267398506, -0.503371835,
          -0.008118622, 0.744918704, 0.478250414, 0.054860048,
          0.161231801, 0.255378008, -0.714323878, -0.13155739,
          -0.147563964, -0.413791358, -0.24855125, -0.0229955371,
          -0.230582818, -0.152653754, -0.417106211, -0.0343660899,
          -0.319086969, -0.267096102, 0.287080944, -0.177264139,
          -0.273529232, -0.507598817, -0.422666043, -0.155046985,
          0.121055096, -0.14193958, -0.283187866, 0.0188918971,
          0.399296612, 0.315222383, 0.164251924, 0.0393680073,
          0.0607215278, 0.245383441, -0.389243037, -0.374872923,
          -0.249782547, 0.200539157, 0.084152773, 0.402274281,
          0.212830886, 0.236207336, 0.00390084274, 0.250959158,
          -0.0531970337, 0.143024325, -0.957524359, 0.172967166,
          -0.745978475, -0.623318851, -0.493752778, -0.0493875034,
          -0.223196626, -0.250324607, -0.357798666, 0.146686435,
          -0.571446836, -0.170516878, -0.456268519, -0.073391892,
          -0.0138485078, -0.68991214, -0.410123169, -0.311315477,
          -0.0250555985, 0.300553739, 0.130812526, 0.212126166,
          0.381293684, -0.227800936, -0.346839577, 0.511370659,
          -0.257868022, -0.926762164, 0.276062638, 0.2067433,
          0.341370046, 0.404521108, -0.0175585505, -0.562005699,
          0.175691575, -0.214502215, -0.0250555985, -0.0260143299,
          -0.32858035, -0.351636469, -0.229750454, -0.230137944,
          -0.738591611, -0.321457386, 0.0255136099, -0.649502873,
          0.692028582, -0.16378139, 0.00579972006, -0.0965676755,
          0.656195462, -0.630156577, -0.100357257, -1.07435024,
          -0.724069536, -0.290130973, -0.0308524575, -0.109543338,
          0.78357631, 1.36050093, -0.106819049, -0.136034936,
          -0.292411864, -0.178390637, -0.370242745, -1.00013959,
          -0.0794207901, 1.15006483, 0.315235585, -0.883012772,
          -0.725569844, -0.688012481, -0.20236662, -0.187016577,
          -0.77811712, 0.141660243, 0.485332429, 0.187186271,
          -0.140133753, -0.850452185, -0.143818751, 0.181612521,
          0.0668748841, -0.753770351, -0.335213631, 0.160133898,
          0.512162983, 0.133920029, 0.333795428, -0.0374330208,
          -1.04201341, 0.351310372, -0.792730331, -0.435087502,
          0.230707079, 0.463416845, 0.151619047, 0.156182721,
          -0.165222257, -0.371893495, 0.0297416188, -0.024149986,
          -0.220503956, 0.163963452, -0.425381362, -0.621218145,
          -1.10507703, -0.422877878, 0.439375192, 0.531827211,
          0.0320607424, -0.0518082492, 0.111863315, 0.312476575,
          -0.0232007392, -0.523818672, -0.0871174932, -0.371893495,
          -0.474641323, 0.242441267, 0.0669802427, 0.298407406,
          -0.27207157, 0.365231991, 0.275162011, -0.0750729442,
          -0.013305624, -0.0427083932, -0.347127497, -0.157500744,
          -0.0861795247, -0.682667494, -0.198838666, -0.51164031,
          0.469158769, 0.639256954, 0.0269098207, -1.00657082,
          -0.500638664, -0.515863061, -0.00990962423, 0.747719288,
          -0.248873681, -0.193893597, -0.0324812531, 0.210844189,
          0.364580035, 0.186617702, 0.0231029335, -0.0514770634,
          0.16925022, -0.809049785, 0.00329872244, 0.0386894234,
          0.0474814028, -0.195430368, -0.359878629, 0.0360573493,
          -0.215584531, -0.499898583, -0.681802511, 0.0530468039,
          0.794568717, 0.0223527197, -0.92889142, -0.428149164,
          -0.199636981, -0.489306957, -0.264774144, -0.429531485,
          0.376991719, 0.57027781, -0.054917179, -0.342000157,
          -0.52243644, -0.734178424, 0.336551994, -0.159562886,
          -0.578566253, -0.341151774, -0.197498485, 0.139834881,
          -0.437247604, -0.515173852, 0.336551994, 0.336551994,
          0.0169670545, -0.40334639, -0.339644194, -0.47995919,
          0.0866359621, -0.366393, -0.760209978, 0.336551994,
          -0.988922358, -0.0988476947, -0.484243661, -0.165211141,
          0.718360424, 0.199661374, 0.259625018, 0.216345131,
          -0.665672898, -0.260009229, 0.356860906, 0.206051081,
          -0.3092902, -0.0899092704, -0.264528245, -0.230803385,
          0.268246561, 0.155349404, -0.0612266846, 0.10341695,
          -0.223457679, -0.23971653, 0.161324948, -0.0633347183,
          -0.0573248342, -0.437133074, -0.157537192, -0.0399938487,
          -0.267014533, 0.0893854648, -0.378482878, -0.195435822,
          -0.12931639, -0.114015989, -0.0431947224, -0.0451639816 ]
      - [ 0.00857431162, 0.200207725, 0.252095312, 0.400760531,
          0.0954095349, 0.0669496059, -0.275788516, -0.232545659,
          -0.404232681, -0.39749229, -0.120041177, -0.450574934,
          -0.253279686, 0.358846694, 0.320695937, -0.385085583,
          -0.0229091216, -0.331213385, -0.0316814855, 0.666777015,
          0.768484354, 0.531432927, -0.249661878, 0.0690745488,
          -0.153241202, -0.112042949, 0.303589612, -0.722889662,
          0.205463216, 0.229842633, -0.490638614, 0.456165016,
          0.144670159, -0.362917781, -0.113046996, -0.0155611653,
          0.183695659, -0.38436231, -0.609833241, -0.0264384728,
          0.966635287, 0.532252312, -0.185770378, 0.284322351,
          0.183101594, 0.195011362, 0.0938812941, -0.250172764,
          0.0455270633, 0.253590941, -0.310007393, -0.607961416,
          -0.175403878, 0.190698743, -1.11795926, -1.09916174,
          -1.17128778, -0.525638103, 0.32598421, 1.33046114, 0.527075648,
          0.724908233, -0.134031355, 0.193851292, -0.675747931,
          -0.271837056, -0.0333281085, -1.44449484, -0.0750216469,
          -0.341377735, 0.28318578, -0.13170062, 0.498131871,
          0.0889043286, -0.400048912, -0.0995317921, 0.0741287693,
          -0.712689161, -0.449677497, -0.154220775, -0.123616822,
          0.190999374, 0.0907965302, -0.096914649, 0.185071185,
          0.65071255, 0.231210038, -0.00352485245, 0.0704583079,
          -0.258893877, 0.198660463, -0.114508666, -0.557882786,
          -0.186170071, -0.953581095, -0.664302707, -0.450405955,
          -0.661489308, -0.523915708, -0.0209423471, -0.151874721,
          -0.946310341, -0.474512041, 0.688780546, 0.374370635,
          0.0979725495, -0.315131038, -0.475101352, -0.109946348,
          -0.176255822, -0.201116279, -0.2777161, -0.299561799,
          0.0104808668, 0.0189686567, 0.138962597, 0.439048886,
          -0.894999325, 0.191450655, 0.890463531, -0.292211264,
          0.050317958, 0.699946463, 0.305500269, 0.383144528,
          0.678318799, -1.24670815, -0.892506897, -1.0323261,
          -0.29234913, -0.253750741, -0.713391006, 0.079632543,
          -0.18513912, -0.296247929, -1.29282928, 0.0248327591,
          0.696412563, 0.528844059, -0.0268307142, 0.640375197,
          0.589784324, 0.418452412, -0.77275914, -0.263193458,
          -1.19528866, -0.691550314, -1.48868132, -1.14878547,
          0.979259253, 0.928586125, 0.921449304, 1.23521423, 0.957926989,
          -0.793872535, -0.724992335, -0.713872969, -0.452667445,
          0.352579981, 0.121276751, 0.799825311, 0.592536628,
          -0.43009758, -0.0226854049, 0.30820176, -0.0492160209,
          -1.10964298, 0.297796458, -0.374475539, 0.520678222,
          -0.209543824, -0.150183931, 0.609707713, 0.0867346823,
          -0.303884119, 0.187317342, 0.515303731, -0.0330935456,
          0.370484024, -0.339889348, 0.596289515, -0.179517835,
          -0.366422892, 0.115084611, -0.38389194, 0.658052027,
          0.204811305, -0.261793017, -0.377377719, 0.205555558,
          -0.182381347, -0.893263161, -0.398418367, -0.446989685,
          -0.0418658368, 0.118635252, -0.294052303, 0.0453724824,
          -0.638659, 0.024026433, -0.133835003, 0.351983458,
          -0.0603177696, 0.490405113, 0.293026865, 0.000496694294,
          -0.478689045, 0.243604451, -0.238640532, -0.643361807,
          0.159808397, -0.446989685, -1.09008873, -0.00198838464,
          0.198871955, 0.422177047, -0.126321048, -0.132724375,
          -0.0278390665, -0.540017366, 0.0612272285, 0.287520051,
          0.211864024, 0.00489157392, -0.113314353, -0.456695527,
          -0.169019014, -0.181807488, 0.433764249, 0.551973462,
          -0.420826614, -0.773900032, -0.613085687, -0.340999365,
          -0.113307916, 0.262808651, -0.121779002, -0.238019258,
          0.455532432, 0.402737975, 0.386276275, 0.548999906,
          -0.128334433, 0.0270661246, -0.271542042, -0.523314476,
          0.231645331, 0.424102813, -0.195722744, -0.57076782,
          -0.129431486, 0.193626478, -0.665012658, -0.151468843,
          -0.171315134, 0.332265496, -0.170144305, -0.132278398,
          -0.962862909, -0.719829381, -0.305545509, -0.162244484,
          0.103989497, -0.326906115, -0.430307478, -0.780362546,
          -0.422317803, -0.522394538, -0.340316981, 0.0519188866,
          0.570052266, -0.194372565, -0.605756581, 0.183108315,
          0.417041093, 0.0648804158, -0.628160834, -0.485360831,
          0.531574428, 0.531574428, -0.31563881, -0.583473802,
          -0.822013021, -0.137166023, -0.0116124796, -0.0624977425,
          -0.0593268201, 0.531574428, -0.846081436, -0.383095473,
          -0.288167894, -0.391318947, -0.22134158, -0.40602693,
          -0.543759465, -0.28298372, -0.50320822, -0.328699917,
          -0.112027928, 0.119694121, 0.363309115, 0.230373934,
          -0.363707006, -0.326348633, 0.18817614, -0.105733782,
          0.152495652, -0.265776694, 0.00823380984, -0.540697336,
          0.758777261, -0.165590957, 0.231721073, -0.204674318,
          0.106337085, -0.18922171, -0.39209938, 0.237675339,
          -0.106260359, 0.37388882, 0.40242371, 0.101022996, 0.102615781,
          -0.592228532 ]
      - [ 0.412229955, -0.281585693, 0.434803009, 0.11174725,
          -0.17185612, -0.0728086978, -0.246899754, -0.171211213,
          0.0227330849, -0.110986352, -0.407777935, 0.206260681,
          0.191696525, 0.397886992, 0.160105273, -0.305938214,
          0.0431682542, 0.0649962127, -0.266316921, -0.13486506,
          0.21470511, 0.0886591673, -0.0950656757, -0.135796085,
          -0.104710057, 0.111233167, 0.185595825, -0.888784289,
          -0.247034475, 0.519253314, -0.0722202063, -0.245599046,
          0.237374216, 0.127389193, 0.467153549, -0.838281274,
          0.134098426, -0.145973682, -0.123748913, 0.170548409,
          0.142149478, 0.578375697, -0.0913222656, 0.0653332174,
          0.185497195, 0.19521521, -0.0340570919, -0.300361931,
          -0.170316041, -0.481923729, 0.708699286, 0.19666037,
          0.180609256, 0.169601589, -0.452631503, -0.0556679219,
          0.424056381, 0.239512041, -0.512322485, 0.493866801,
          0.28048113, 0.236669853, -0.846363127, 0.473914564,
          -0.073364079, -0.0570633486, 0.314622045, -0.161189586,
          0.289414763, -0.791880131, -0.408209562, -0.0228195637,
          0.0285062026, -0.186369702, -0.291937143, -0.348317534,
          -0.232305303, 0.210163191, 0.222983122, -0.0224485677,
          0.164222389, 0.363889098, 0.0628814697, -0.0640887246,
          -0.526472807, 0.0249923468, -0.186739326, 0.51068753,
          0.567094982, 0.733133793, 0.0812866613, 0.118859507,
          -0.173233658, -0.152304173, 0.285657227, 0.0743514299,
          -1.03155053, -0.640892088, -0.135582089, -0.184788272,
          0.232506946, 0.447682202, 0.0497448035, -0.0028691832,
          -0.544911563, 0.199137092, 0.525329351, 0.201568902,
          -0.400469542, -0.0965314582, 0.139839709, 0.126459613,
          0.0737022609, 0.124513157, -0.0156953242, -0.20434323,
          -0.219840318, -0.382460952, -0.103073739, 0.611656725,
          -0.831982613, -0.769346714, -0.0961442441, 0.0696557984,
          0.229006231, -0.218001306, -0.523434043, -0.111598998,
          0.120976001, 0.141544163, 0.0737022609, 0.660005927,
          0.0372171476, -0.248480573, -0.459637374, 0.00290445564,
          -0.327388197, -0.137200519, -0.581920326, -0.411592722,
          0.0172427595, -0.222810715, -0.105041072, 0.0740837008,
          0.462598294, 0.0816074982, 0.364773661, -0.599382818,
          -0.564200521, -0.27140516, -0.240077674, 0.0224208646,
          0.441583127, 1.17279708, -0.0154572502, -0.109044053,
          0.0818639621, 0.162038773, 0.0160683952, -1.1137836,
          -0.708153665, 0.749790728, 0.728312373, 0.0361050852,
          -0.0253831334, -0.487128735, -0.30163905, -0.425729096,
          -0.998926759, -0.395832598, 0.778906465, -0.0665372834,
          -0.0214621965, -0.557527125, -0.178799704, 0.412750483,
          0.305203706, -0.972978175, -0.833123207, 0.240374431,
          0.522945583, -0.120053425, -0.115422502, -0.129183799,
          0.199875057, 0.127339259, -1.46178174, -0.719170868,
          0.148885682, -0.195161417, 0.389341623, 0.625968456,
          0.165026709, 0.0257304925, -0.0750889704, -0.222731754,
          0.262268901, -0.12149898, 0.141743124, -0.405816734,
          -0.672870576, -0.590361178, 0.208411396, 0.25048238,
          -0.181504771, -0.225441992, 0.242920145, -0.0222960971,
          0.414853126, 0.57016933, -0.228514224, -0.0716865361,
          0.153160393, -0.0960505977, 0.0200569928, -0.145868853,
          -0.0632610843, 0.156335056, 0.304184169, -0.077425763,
          0.00672825472, 0.148417145, 0.140433222, -0.0469374433,
          -0.102204151, 0.0417204946, -0.276324898, 0.0173147433,
          0.103293724, 0.143582702, -0.154459998, -0.0014333307,
          -0.365848482, -0.0545483269, -0.0087451553, 0.0238293801,
          0.227987424, -0.060867656, -0.257643193, -0.0187861733,
          0.188744172, 0.221463248, -0.106260732, 0.0274109319,
          -0.206339985, 0.0309038274, 0.00486307684, 0.0401905626,
          -0.223579451, 0.0381636769, -0.410294056, -0.00867758598,
          -0.0918800458, -0.208782166, -0.163875908, 0.0230332892,
          0.03891908, -0.168610871, -0.53320241, -0.280964434,
          0.17080994, -0.431669265, 0.0350948833, -0.911811113,
          -0.00230258703, 0.286411226, 0.261339039, -0.454352736,
          -0.197816044, -0.00482459925, 0.299719781, -0.195134759,
          -0.418532878, -0.127936378, -0.223891288, -0.160566151,
          0.0904615968, -0.28301242, 0.298230529, 0.299719781,
          0.287954897, -0.724681795, -0.40868777, 0.118516982,
          0.190172806, 0.0142226815, -0.27728039, 0.299719781,
          -0.0893473327, 0.249055445, -0.457477093, -0.236442506,
          0.0296281409, 0.285737187, 0.335551798, 0.160899341,
          0.252096832, -0.0775631368, 0.468018532, 0.375010192,
          -0.131639689, -0.0816057175, 0.245644808, 0.115938358,
          0.0853302553, 0.285741538, -0.0775223747, 0.0482279286,
          -0.432685375, -0.374849826, 0.0880498588, 0.143141076,
          0.145102412, -0.384251505, -0.16137825, -0.0892186686,
          -0.171714112, -0.104281552, -0.18884857, -0.275322884,
          -0.075702101, 0.281749547, -0.0863067433, 0.0650533512 ]
      - [ 0.395751238, 0.207690462, 0.117897131, 0.201328665,
          0.0999019369, -0.281084478, -0.317444116, -0.145234898,
          0.244680196, 0.291422278, -0.0986148119, -0.312957793,
          -0.21192351, 0.143640667, 0.038957715, -0.46223861,
          -0.156017661, 0.160646737, 0.192159712, -0.0212036818,
          -0.281187832, 0.124528714, 0.083449699, -0.398454636,
          -0.467253417, -0.190342784, -0.0666759312, -0.566053808,
          -0.413319618, -0.257189304, -0.586573124, 0.235164896,
          0.494116008, -0.215184405, 0.329616427, 0.194842353,
          -0.00535561144, -0.156234413, -0.269482583, -0.134593964,
          0.251704425, 0.0847265646, -0.368227094, -0.143943205,
          0.0087175183, 0.00913149118, 0.0468406528, -0.312961698,
          -0.066625081, 0.278020322, 0.310236394, -0.203597486,
          -0.0615005009, 0.00913149118, -0.858858049, -0.20095104,
          0.0955698937, 0.00942206383, 0.363212556, 0.603712022,
          0.410008639, 0.483475208, -0.605400085, -0.397668093,
          0.500777721, 0.199746475, 0.705910683, 0.700320423,
          0.559859514, 0.129357412, -0.142584756, -0.663219512,
          0.2300933, 0.0151985735, -0.319834203, -0.229901999,
          0.332461387, 0.11077971, -0.129831538, 0.193415865,
          0.0444814973, 0.306710571, 0.0747688562, -0.316433758,
          -0.555416286, 0.476108611, 0.0582853407, 0.050134141,
          0.61598748, 0.00952005107, -0.112967335, 0.517518282,
          0.00222952687, 0.248131141, 0.423096776, 0.0546027012,
          -0.551981211, -0.340721339, -1.11708522, 0.152532697,
          -0.0666607022, -0.351408601, -0.59853971, 0.240526989,
          -0.227477267, -0.175387144, 0.0378147885, -0.324264646,
          -0.257867485, -0.220607698, -0.165774122, 0.121747807,
          -0.142282799, 0.000342056563, -0.0579929538, -0.163545191,
          -0.137445405, -0.558757663, -0.363646269, 0.231749028,
          -0.857284606, -0.860042214, 0.622012615, 0.155491784,
          0.318105549, 0.674473286, -0.096361056, 0.133408636,
          0.547695518, 0.0830695853, -0.0899337977, 0.421638101,
          -0.0785309896, -0.430307835, -0.482813776, 0.199657425,
          0.227301091, 0.378724009, -0.23811917, -0.905576468,
          -0.0765957013, -0.277140379, -0.548001289, 0.47793448,
          0.309337616, -0.362968564, -0.0896250978, -0.676804602,
          -1.30952096, -0.0408591442, -0.000337417383, 0.489264637,
          0.839115024, 0.737715125, 0.142103165, 0.00862238742,
          0.316980511, -0.561972439, -0.513536572, -0.604218841,
          -0.156154573, 0.344341606, 0.378046334, 0.00702919345,
          -0.271934181, -0.300537646, -0.8818838, -0.743999302,
          -0.592607975, -0.36591962, 0.63691926, 0.0167457443,
          0.203837976, -0.11572364, 0.424082905, -0.542508543,
          -0.0626578107, -0.282595754, -0.0647379607, 0.296002418,
          0.737725556, 0.32409364, 0.367409915, 0.307127804,
          -0.564947486, -0.408612579, -0.90104562, -0.421350509,
          -0.326511532, 0.338761777, 0.067149587, -0.0312943347,
          -0.154450744, -0.367083728, -0.41278398, -0.222563729,
          -0.101447135, -0.31103459, 0.145370394, -0.518654704,
          -0.648034155, -0.22582905, -0.557942986, 0.298377275,
          0.167617947, 0.233442083, 0.497769922, 0.536970675,
          -0.180367395, -0.0115621183, -0.00123194908, -0.367083728,
          -0.0749149024, 0.429923117, 0.0783376992, 0.203700051,
          -0.0160477459, 0.410982043, 0.535443306, -0.193567097,
          -0.0759963095, 0.0520635955, 0.0446627103, 0.0414382257,
          0.0200408325, -0.403994113, -0.30050239, -0.386794269,
          -0.101022154, -0.267836869, -0.204687551, -0.564114749,
          -0.46728611, 0.0209163018, -0.223126993, 0.32048136,
          0.0252043363, -0.347113371, -0.0220462326, 0.207572758,
          0.384720474, 0.488937527, 0.0820373148, -0.0849305615,
          -0.330813348, -0.393996209, -0.135530666, 0.219929203,
          0.262967438, 0.00725880638, 0.101391338, 0.00273444806,
          -0.223192036, -0.114150293, -0.35078606, 0.0350904018,
          0.0730972514, -0.223615184, -0.680604994, -0.787975729,
          -0.15162608, -0.381958306, 0.0359158702, 0.0854019523,
          0.278382093, 0.0961758867, 0.13572973, -0.00766958157,
          0.0533405468, -0.414578617, 0.117735744, 0.043000713,
          -0.195833206, 0.0164806675, 0.31489557, 0.168156192,
          -0.591428101, -0.425042748, 0.111838929, 0.128184915,
          -0.0360588282, -0.263038814, -0.175149426, -0.0675602555,
          0.0225352887, -0.403994352, -0.164539516, 0.117735744,
          -0.574486554, -0.343773156, -0.432460427, -0.104875058,
          -0.169450268, 0.275996208, 0.389736623, 0.591796458,
          0.214696303, -0.0639141649, -0.107723109, 0.272098184,
          0.0361515693, 0.112668954, -0.0388185158, 0.121764183,
          0.151333675, 0.477169514, 0.0419405065, -0.387218505,
          -0.367450267, -0.214660019, 0.00173139444, -0.168994337,
          -0.0747155547, 0.125359848, -0.0910511464, -0.332505196,
          -0.391931385, -0.0625583753, -0.159802243, -0.0483902134,
          -0.293191254, -0.169253543, -0.0184665192, -0.157956526 ]
      - [ 0.0665437132, -0.316807359, -0.0689387619, 0.150204301,
          0.552687407, 0.248415068, 0.0463701263, -0.0271578245,
          0.0295463521, -0.0821704641, 0.0444498248, -0.510074198,
          0.11289528, 0.332196176, 0.446188033, -0.0842895806,
          0.201776043, -0.0723783299, -0.234449968, -0.191614449,
          0.14341633, -0.219468206, 0.0491575487, 0.108388446,
          -0.153550744, -0.13540487, -0.0444022194, -0.754055262,
          0.116148658, 0.299605697, 0.0230978671, -0.64964515,
          0.359536856, -0.218734145, 0.344764441, -0.552173018,
          0.33357054, -0.276304305, -0.775966227, -0.18342647,
          0.0609716922, 0.0731866285, -0.254451603, 0.208714128,
          0.320820183, 0.32611388, -0.104385667, -0.204268321,
          -0.1921729, -0.122329339, -0.251417696, -0.0685054138,
          0.334343791, 0.500511765, -0.455424517, -0.00330402772,
          -0.0190871842, -0.0321066268, -0.351290435, 0.327205092,
          -0.339957088, 0.0898194313, -0.162380606, 0.0341333672,
          -0.514667749, -0.0939006507, -0.0838519707, -0.101918429,
          -0.00241397973, 0.196275175, 0.18743296, 0.179164618,
          -0.0654782802, -0.214743361, 0.010479576, -0.115024626,
          0.424915045, 0.0555292442, -0.0540945791, 0.0572155192,
          -0.107303627, -0.129685074, -0.100715272, 0.182292044,
          -0.389587164, 0.382456005, -0.180138707, 0.0594797954,
          -0.103741303, -0.153263479, -0.844685495, -0.267795116,
          -0.335652769, -0.047980845, -0.201254368, 0.263408929,
          0.0548058935, -0.224542618, -0.805208087, -0.269137263,
          0.0755830705, 0.0734286457, -0.131849363, 0.306576997,
          -0.0160674397, -0.112752371, -0.484797299, -0.47044912,
          0.164517403, 0.0330683179, 0.141201437, -0.630461216,
          -0.342680216, 0.430807084, -0.069121629, -0.0939055011,
          0.390716434, -0.343730539, 0.623278916, 0.991898179,
          0.00831983425, -1.43797696, -0.17940551, -0.0444907956,
          0.162308589, 0.444108456, -0.0512206331, 0.0661246926,
          0.0862264931, -0.226848394, -0.342680216, 0.191100404,
          0.0300589763, -0.0410173796, -0.345658541, -0.487522602,
          0.0159423091, 0.206020772, -0.107230909, -1.19738352,
          0.2085758, 0.160582587, 0.40227744, 0.17138584, -0.120311156,
          -0.581106961, 0.129464298, -0.209477007, -0.302084386,
          -0.034981437, -0.205496311, 0.0636185706, 0.509677172,
          0.546475351, -1.36253154, -0.96769011, -0.241674691,
          0.419000685, 0.280905515, 0.287590653, 0.515285611,
          0.976459682, 0.00654278649, -1.40344465, -0.796253026,
          -0.241213411, 0.1075183, 0.236542806, -0.186131582,
          0.555584967, 0.979846597, 0.118651286, -1.17397177,
          -1.55923259, -0.627007604, 0.455188453, 0.439856946,
          0.134723246, 0.038231153, 0.545888841, -0.39327535,
          -0.482389212, -0.98528254, -0.482445836, -0.484145314,
          0.228536934, 0.169443026, 0.0941470787, -0.0442618355,
          0.354638398, 0.51666522, -0.0654069409, 0.00950353406,
          -0.0293854307, -0.0593079627, 0.112934522, -0.335315406,
          0.053384237, -0.159443676, -0.25561285, -1.11763799,
          -0.785307527, 0.478152543, -0.0961346179, -0.293341368,
          -0.309440583, 0.312776715, 0.123130068, 0.374481887,
          -0.0980203897, -0.292932451, -0.0293854307, -0.430520594,
          0.0751112476, -0.227357671, 0.348826796, 0.472525001,
          0.187596202, 0.374089658, 0.114385605, -0.2224987,
          -0.159870282, 0.133700505, -0.0733154193, 0.164921001,
          -0.433639258, 0.0400015078, -0.169684023, 0.0730716735,
          -0.00457361154, 0.000205795732, -0.0970822573, 0.130817771,
          -0.345822215, -0.397983074, 0.0556926653, 0.133391812,
          0.353189349, -0.251761109, -0.263519883, 0.120165147,
          0.0437811688, -0.611552358, -0.19327265, 0.0151070869,
          -0.27296555, 0.448759675, 0.0769621059, -0.0565618835,
          -0.348474294, 0.201053575, -0.153852835, -0.550875723,
          -0.175372705, -0.597592592, -0.0110508651, 0.623692989,
          0.150120497, -0.310246974, 0.123952717, -0.136933416,
          0.364382386, 0.319848359, -0.311396539, -0.259823322,
          0.401479185, 0.0255646072, -0.289638549, -0.125141039,
          0.27428779, 0.177371815, 0.212968737, -0.350457698, 0.20223397,
          0.0167189166, -0.119209461, -0.746581495, -0.310876638,
          0.177371815, 0.177371815, 0.132121652, -0.219296321,
          -0.303317696, -0.121404678, -0.0066210134, -0.843009531,
          -0.534193516, 0.177371815, -0.0158206113, 0.427681267,
          0.0951538011, -0.184151381, 0.258858114, -0.078837201,
          -0.212053388, -0.0198344011, 0.0321776196, 0.0107601667,
          0.511643708, 0.478715658, -0.137603819, -0.0694566146,
          -0.0252177473, -0.353386194, -0.105065636, -0.0630352125,
          -0.13454707, -0.244243607, -0.125782117, -0.220516682,
          -0.116385318, 0.0559991896, -0.257252008, -0.26440835,
          -0.250503093, -0.201577589, -0.37134394, -0.111520454,
          -0.272402406, -0.36310941, 0.137754411, -0.160158411,
          -0.134628356, -0.1428238 ]
      - [ 0.391982794, -0.0176597461, 0.222560793, -0.0264946017,
          0.693262219, 0.213790014, -0.0843614265, -0.392918527,
          0.226373941, 0.251078993, 0.368227899, -0.3493388,
          -0.158445135, 0.271964341, -0.00467373244, -0.352219492,
          -0.075301379, 0.262771338, -0.248567253, -0.480946928,
          -0.481501877, -0.164875418, 0.302554905, -0.317212135,
          -0.164983153, -0.559064746, -0.123710595, -1.14149332,
          -0.644657016, -0.352744192, -0.58170861, 0.447973937,
          0.489782363, -0.0586389229, 0.211090878, -0.515610039,
          0.314059436, 0.148900151, -0.315788537, 0.00828779861,
          0.728877783, 0.0710269064, -0.386758208, 0.170160621,
          0.274584651, 0.316689491, -0.675529003, -0.332922935,
          -0.0937582776, 0.669360518, 0.335131377, -0.128861725,
          0.308512956, 0.377315164, -1.0283426, -0.256110728,
          0.153842419, 0.237975046, 0.357828736, 0.659067571,
          -0.170999989, 0.0346535072, -0.828129053, -0.265826374,
          -0.952815115, -0.380806267, 0.340041786, -0.33924973,
          0.438010752, -0.0741144791, -0.248922274, -0.704276741,
          0.213097423, -0.41783461, -0.11230921, -0.090586707,
          0.153606981, 0.185062915, -0.263737321, 0.0399041325,
          0.137392312, 0.32834658, 0.204074189, -0.230825812,
          0.0302962307, 0.61492151, -0.141819194, 0.164122835,
          -0.223845944, 0.131878927, -0.427871883, -0.159908652,
          0.0885205716, 0.180009827, -0.634853303, 0.31545493,
          -0.148105875, -0.285714269, -0.897649825, 0.154165357,
          0.0663795769, -0.0206024237, -0.207035363, 0.348734021,
          -0.358898222, -0.0255782474, -0.21982111, -0.486685961,
          -0.0408848077, -0.546612501, -0.417708039, -0.0474740304,
          -0.0196661707, -0.0011491942, 0.0450752638, -0.211142391,
          0.274797589, -0.406391352, -0.372158796, 0.180468261,
          -0.879675329, -1.19765806, 0.612982035, 0.461287528,
          0.279467255, 0.536969185, -0.0167610925, -0.0684880093,
          0.266430974, -0.0767212063, -0.0196661707, 0.270681143,
          -0.215829834, -0.22642599, 0.243492067, 0.124739334,
          0.207820877, 0.311309248, -0.273582339, -1.18718779,
          -0.131884426, -0.247735679, -0.397615165, 0.188228071,
          0.753367901, -0.226841241, 0.204448298, -0.58058846,
          -1.66699219, 0.0054408093, 0.0454073511, 0.169347376,
          0.89115411, 1.12660003, -0.233106285, -0.157527059,
          -0.0532222167, -0.644257963, -0.374736607, -0.0378273688,
          0.162976041, 0.905994713, 0.217279971, -0.210838124,
          -0.544992566, -0.467812181, -1.41599226, -0.324384123,
          -0.168637857, -0.00233432348, 0.494951725, -0.0186161064,
          0.351235658, -0.177682221, -0.0293591376, -0.563702881,
          -0.194961935, 0.217523366, -0.0159341376, -0.313361704,
          0.493211061, -0.135843396, 0.130627871, -0.207071796,
          -1.23005974, 0.310735196, -0.0123189697, -0.026591612,
          0.298942715, 0.403820872, -0.00376275298, 0.207635388,
          -0.529913068, 0.0141175995, -0.162570611, -0.0148225445,
          -0.00607764581, 0.0732419863, -0.491570622, -0.425216645,
          -0.691807687, -0.630029559, -0.187309459, 0.275590092,
          0.483508974, 0.327462971, 0.0804197118, 0.126936391,
          -0.306211472, -0.100977011, -0.278186113, 0.0141175995,
          -0.566771686, 0.123976797, -0.0671162456, 0.409442902,
          0.0307363309, 0.0838364139, 0.0398717709, -0.24257414,
          0.0762943029, -0.0314122364, -0.119045325, -0.0452744924,
          0.321369618, -0.645891905, -0.530340493, -0.228767082,
          0.128741547, -0.303588837, -0.166198835, -0.902152002,
          -0.732101619, -0.664606571, 0.0933178812, 0.149078563,
          -0.203454018, -0.27917549, 0.167961419, 0.0519187525,
          0.444992006, 0.246356666, 0.0757951438, 0.11305102,
          -0.156015292, -0.406944275, 0.103194252, 0.248363644,
          0.0624415763, -0.0170530826, -0.0653168559, 0.165209472,
          -0.537764192, -0.462709039, -0.29940635, 0.0194056518,
          0.285222173, 0.19830516, -0.470808983, -0.693283021,
          -0.807286561, -0.198957637, 0.218569174, 0.00531074125,
          0.181898311, -0.0459186435, -0.297219872, -0.304380924,
          -0.396428674, -0.815541506, 0.342846692, -0.105437793,
          -0.32778123, 0.0993377119, 0.329410106, 0.10704878,
          -0.208335146, -0.114949346, 0.29482758, 0.29482758,
          0.0852986947, -0.227091596, -0.101954326, -0.0571607761,
          -0.285494089, -0.394940704, -0.197240785, 0.29482758,
          -0.363570571, -0.180008426, -0.124693871, -0.108435743,
          0.0577481277, -0.244200319, -0.0146592306, 0.30143553,
          -0.0980827063, 0.107813798, -0.089309983, 0.595366001,
          -0.418676078, -0.0797392055, -0.227002695, -0.155916899,
          0.0473918766, 0.338779539, -0.07426586, 0.0161127634,
          0.0516058132, -0.0779036433, -0.0766349733, -0.366020232,
          -0.257986039, -0.0260743834, -0.136910573, -0.0976339504,
          -0.235755756, 0.469707966, -0.349830538, -0.080792658,
          0.271190703, -0.158619463, -0.0808491409, -0.187087953 ]
      - [ 0.0354091786, -0.0360138938, 0.146741837, 0.126538083,
          0.353615105, -0.110637128, -0.280953079, 0.0498242863,
          -0.0264236908, 0.104548909, 0.179837108, -0.0548350923,
          -0.0692598373, 0.233053893, -0.00695276447, -0.0395712256,
          0.457611769, 0.104548909, -0.246146888, -0.466534138,
          -0.449686855, -0.0939378962, 0.104548909, -0.344802529,
          -0.523361862, -0.227651745, -0.0996773615, -0.944212794,
          -0.442085296, 0.116675265, -0.179402754, 0.586744428,
          0.527705371, 0.0528455675, 0.35939759, -0.790797472,
          0.198353559, 0.283608764, 0.0737317502, 0.107390568,
          0.128937617, -0.0206995141, -0.0802674592, 0.0182215199,
          0.197606459, 0.219348773, 0.0926185325, -0.117398456,
          0.0817624405, 0.312871665, 0.0719389319, -0.0765218884,
          -0.157070711, 0.22220169, -0.499964833, 0.213608474, 0.5238747,
          0.420676708, 0.364313573, 0.0967268571, -0.240796402,
          -0.438728422, -0.657563746, 0.279247046, -0.122580148,
          -0.0870614573, 0.301303327, -0.32251206, -0.58749938,
          -0.897110045, -1.09654629, 0.0655315965, -0.0112662427,
          -0.15611653, -0.135437474, -0.0730391517, 0.243147865,
          0.0432885587, 0.0996957794, 0.264876455, 0.0610087812,
          0.0728873163, 0.09116631, 0.195287719, -0.211896032,
          0.0750257894, -0.0194678493, 0.408357233, 0.363077879,
          0.199748293, -0.227296978, -0.423428804, 0.0960811675,
          0.113558769, -0.908773661, -0.1583419, -0.320903152,
          -0.0691583604, -0.214031205, -0.091122061, 0.0199626982,
          0.176244527, -0.47888118, 0.0926116705, -0.373952657,
          0.0924481973, 0.334536582, -0.459837198, 0.185768217,
          -0.28913945, -0.335405678, -0.0855344236, -0.0122836204,
          0.212641075, -0.116238497, 0.0375488847, 0.208849102,
          -0.321854144, -0.188170537, 0.372265399, -0.158653885,
          -0.480625331, 0.30769825, 0.100789167, 0.147751391,
          -0.00740772206, 0.20951131, -0.0165252183, -0.0129022747,
          0.0408336148, -0.0122836204, 0.139245674, -0.271657109,
          -0.281733543, 0.035830494, 0.047479298, -0.170608759,
          0.201811016, 0.250011712, -0.567809701, -0.291757464,
          -0.403383046, -0.530033648, -0.171643287, 0.537631214,
          0.0202372074, 0.286309838, -0.111607499, -0.717196405,
          -0.339705169, -0.253965139, -0.213612512, 0.148806363,
          1.32686162, 0.0706419125, -0.154691219, -0.551043808,
          -0.395066261, -0.667240322, -0.491947323, -0.290800869,
          1.41254294, -0.182860509, -0.158414006, -0.327040553,
          0.0118656727, -0.339905113, -0.278232217, -0.313562244,
          0.206528261, -0.0575836636, -0.311419219, -0.124645777,
          -0.60850662, -0.420985997, -0.140188128, 0.418469906,
          0.379823208, 0.403697282, 0.208936945, 0.493803978,
          -0.28374964, 0.133918017, -0.247813985, -1.14509654,
          -0.101186544, 0.036946062, 0.252779871, 0.572680295,
          0.260784894, 0.137109742, 0.0794320777, -0.229607463,
          0.0572992302, -0.308109969, 0.112309001, 0.279408664,
          0.0185656305, -0.115251273, -0.729263723, -1.24922228,
          -0.525786817, 0.120213963, 0.433680236, 0.407202989, 0.1752619,
          0.221126512, 0.111576065, -0.0831337199, -0.385700077,
          -0.126557648, 0.0572992302, -0.341283798, 0.0988524854,
          0.0060602203, 0.102178477, 0.144365028, 0.106702663,
          -0.112720959, -0.148510844, 0.0911594629, 0.0515239574,
          -0.28499946, -0.112042017, 0.246843532, -0.0758061484,
          -0.138979688, -0.552368522, 0.26042828, 0.192346916,
          -0.300740927, -0.597008705, -0.715466022, -0.170549646,
          -0.0057233735, 0.321698546, -0.210229054, -0.137736797,
          0.168975025, 0.150780514, 0.143330589, 0.244918436,
          0.0235101338, 0.0751667842, -0.0354352966, -0.789250135,
          0.0100978585, 0.127693042, -0.0134372255, -0.121174984,
          -0.234755188, 0.0994719043, -0.549452603, -0.0532755591,
          -0.281776816, 0.4497751, 0.439481139, 0.017388355,
          0.00764556788, -0.243510798, -0.601630211, -0.584869981,
          -0.0625177473, -0.42985633, 0.142260417, 0.479346424,
          0.316604495, 0.322998703, 0.160730556, -0.494290322,
          0.195943281, -0.0324986354, -0.62370944, -0.11504411,
          -0.0504494235, 0.0126401456, -0.117055252, -0.312197417,
          0.195943281, 0.195943281, 0.216883227, -0.312188506,
          -0.397699893, -0.00690512499, -0.103512935, -0.0441406816,
          -0.0487606116, 0.195943281, -0.494374007, -0.288929164,
          -0.696355045, -0.261306673, 0.379393101, 0.0753486454,
          0.127278402, 0.150496691, -0.184489861, -0.217627004,
          -0.0478434227, 0.0337859429, -0.394615769, 0.0867043063,
          -0.0709238574, -0.107005008, 0.0664231479, 0.0340929665,
          -0.0242849458, 0.0858539715, -0.10798768, -0.365103751,
          0.21438387, -0.181211397, -0.0967739224, 0.0535104871,
          -0.0510895215, -0.115675986, -0.139805794, -0.00970369298,
          -0.346246839, -0.073622115, 0.0259688795, 0.0957603976,
          0.177215263, -0.156240612 ]
      - [ 0.0651253164, -0.370742917, -0.201751068, -0.174496964,
          -0.129859328, 0.133419707, -0.00212664925, 0.146503702,
          -0.00478914985, -0.00250251428, -0.168378547, 0.0302479137,
          -0.0345012285, 0.364815205, 0.357543796, 0.248510912,
          -0.0342620052, -0.0256643835, 0.166387811, -0.38096714,
          0.100450262, 0.152065143, -0.00148907583, 0.0817068294,
          -0.329694957, 0.123065948, 0.318213195, -0.262830108,
          -0.0148108099, 0.273822933, 0.213803425, -0.209669247,
          0.497123867, 0.202053025, -0.0439913012, -0.145070046,
          0.0431603417, -0.0330586471, -0.0741638988, -0.0965308473,
          0.307676464, 0.190899387, 0.242150351, 0.0163782574,
          0.0238778163, -0.00132284127, -0.372003973, -0.614311457,
          -0.253787637, -0.193899184, -0.0460263193, 0.115031131,
          -0.136008605, 0.00690580858, -0.279673517, 0.283201128,
          0.228195772, 0.287852049, 0.00431618746, 0.150124609,
          0.481180012, 0.0147779584, -0.365520865, 0.286994994,
          0.6207546, 0.439142317, 0.254374117, -0.297353685,
          -0.575750232, -0.449911356, -0.257827222, 0.204466,
          0.184719816, -0.247013256, -0.116030335, -0.049040962,
          -0.260767281, 0.184228867, 0.00706699444, -0.0441045463,
          0.127204746, 0.268536389, -0.314673573, 0.23020117,
          0.108273923, -0.0713942125, 0.0840989649, -0.323307782,
          0.245855451, 0.107349552, 0.692175865, 0.378872067,
          0.197104797, -0.0307939295, -0.0588130876, -0.202334359,
          -0.700822413, -0.665157259, -0.0528913997, 0.241564348,
          -0.0391638167, 0.106344193, -0.278190076, 0.0944927707,
          -0.360959709, -0.425742954, -0.271984637, 0.198593497,
          -0.140124306, -0.443222195, -0.113133267, 0.379587829,
          -0.0114053423, -0.141334981, -0.144694299, -0.0988432392,
          0.442137569, 0.368995339, -0.294335991, -0.244206965,
          0.157518327, -0.427484125, 0.196288332, 0.205642983,
          0.262147129, 0.931886554, -0.427426904, -0.448938191,
          -0.500167787, 0.217172652, -0.0114053423, -0.0115492363,
          0.44787398, -0.0692351833, 0.135663196, 0.334256113,
          -0.619566381, -0.769209445, -0.682292938, -0.65767163,
          -0.0301620699, 0.304914981, 0.424280912, 1.45659852,
          0.206795573, 0.483812481, 0.317186415, 0.353455365,
          -0.568147361, -0.643898845, 0.00888272375, -0.0620539263,
          -0.181084126, 0.81231153, 0.810272157, 0.878128946, 0.20960483,
          0.0396389179, -0.944720984, -0.96262145, -0.726851523,
          -0.148471549, 0.359560251, 0.482920706, 0.569038272,
          0.0321456939, -0.742834806, -0.858893096, -0.720389485,
          -0.499512821, 0.0307662208, -0.140083373, 0.627494395,
          0.578059852, 0.668283761, 0.306667268, -0.658482313,
          -0.874677896, -0.797855854, -0.979836524, 0.374890506,
          0.26136595, 0.0687837526, -0.45655936, 0.611923099,
          -0.313513219, -0.666584373, -0.764477611, -0.424755067,
          0.102291822, 0.253184736, 0.317266583, -0.103903525,
          0.218886942, -0.125188693, 0.0137139829, -0.432035714,
          -0.392164052, -0.250036627, -0.404982597, -0.570640683,
          -0.483836532, 1.49621761, 0.161149487, -0.0904189497,
          -0.00302657951, -0.62074846, 0.375609308, -0.0837282389,
          -0.2862418, 0.13823086, 0.218886942, -0.0764873847,
          0.0262337457, 0.0327456556, -0.0183455274, -0.252533019,
          0.0706592649, -0.207318991, -0.175159439, 0.0672282055,
          0.278782845, 0.0182973742, 0.0160517395, -0.0466015749,
          -0.187461898, 0.385944843, 0.0140395211, -0.083172746,
          -0.51728642, 0.120750658, -0.234187096, 0.249611974,
          0.439020008, 0.160412386, -0.0778823271, -0.227685332,
          -0.330316603, 0.364916593, 0.0248075612, -0.183514342,
          0.0541561767, 0.203727871, 0.0672282055, 0.352242798,
          -0.0671111867, 0.182503492, 0.0641073287, 0.2284448,
          -0.205476746, 0.0295636635, 0.0672282055, -0.00551711395,
          0.194568828, 0.224714369, 0.0229896568, -0.0708556324,
          -0.0711703748, -0.267174065, -0.314287841, -0.016748501,
          -0.430366904, 0.206801862, 0.409638524, 0.563455522,
          0.725642681, -0.218751505, -0.110543519, -0.524159193,
          -0.46784243, -0.0695788488, 0.0258998759, -0.179965556,
          0.00197692844, 0.258200824, 0.299637109, 0.164516747,
          0.0474101789, -0.0105040632, -0.0695788488, -0.213417739,
          -0.180764928, 0.124134824, 0.0763791054, 0.141370431,
          0.154073209, 0.179120898, -0.0695788488, -0.229332611,
          0.00966843311, -0.398603618, 0.0557307638, 0.766537845,
          0.0682665333, -0.0138415769, 0.125797838, -0.0800115615,
          0.202596515, -0.0614976771, -0.477006882, -0.0982920602,
          0.154396281, -0.0413232334, -0.183495283, 0.154520065,
          0.138480082, 0.158588186, 0.0218027011, -0.249698222,
          0.198584646, 0.0749311447, -0.0339016728, -0.213153988,
          -0.0765445903, 0.227160245, 0.210877374, 0.191402942,
          -0.135595158, 0.22828117, 0.245636672, -0.497730136,
          -0.342766225, -0.291334718, 0.261858314 ]
      - [ -0.24539879, -0.300845981, -0.00248276023, -0.0194185451,
          -0.109798893, -0.205263123, -0.14677082, -0.116812997,
          -0.376512676, -0.119681455, -0.133974552, -0.0622583292,
          -0.185154468, 0.0884454995, 0.254265755, 0.128146291,
          0.185492888, -0.123014286, 0.044415772, 0.440353841,
          0.780951917, 0.448087573, -0.117294222, -0.420016825,
          -0.410281718, 0.00901363697, 0.393475175, 0.194981694,
          0.325532556, 0.217058226, -0.358547211, 0.615884364,
          0.528954208, 0.000791997532, 0.450679064, 0.520536304,
          -0.120239116, 0.0419830158, -0.122410521, -0.0407514125,
          0.176242366, 0.334547043, 0.112512842, -0.12291377,
          -0.147122011, -0.142475173, -0.331344038, -0.324596763,
          -0.0385847986, -0.123374134, -0.121292032, -0.226171583,
          -0.362892419, -0.142475173, 0.177838162, -0.247961253,
          -0.421023101, -0.156379417, -0.0745871961, 1.06804979,
          0.981019139, 0.463519812, 0.219627604, 0.401739299,
          -0.0306035671, 0.564180672, 0.485808671, -0.869302452,
          -0.238048822, 0.143587708, 0.0769583434, -0.149356723,
          0.179552898, -0.193577126, -0.157567218, -0.101148479,
          -0.162767053, 0.0404339731, 0.0605388582, -0.141886845,
          0.220607683, 0.164113462, -0.212577552, 0.0393439308,
          -0.213995993, 0.12936376, 0.290747762, -0.205657974,
          -0.0447003506, 0.0359883644, 0.480179697, -0.225012511,
          0.149151757, 0.289550841, -0.0577205457, -0.35245958,
          -0.216212615, -0.239702031, -0.189602971, -0.163768768,
          -0.275627017, -0.18242009, -0.222078219, 0.229743853,
          0.2701855, -0.537746787, -0.0016096984, -0.268738389,
          -0.186398253, -0.0634525493, -0.308081746, 0.380507827,
          0.140856639, -0.218406945, -0.101644747, -0.0550455526,
          0.537592769, 0.218522087, -0.331014007, -0.579264045,
          -0.170015812, 0.526730061, 0.37152788, 0.0942195728,
          0.237918988, 0.909827709, -0.776835084, -0.634048641,
          -0.502249479, -0.0265006237, 0.140856639, -0.137316555,
          0.737659872, -0.0318759121, 0.0743063688, -0.537998259,
          -0.660536766, -0.515037298, -0.0778031796, 0.45278731,
          -0.106566057, 0.786924124, 0.367899269, 0.220866695,
          0.102731198, 0.0972086787, -0.103246599, 0.33114928,
          -0.14456144, 0.387651235, 0.657481909, 0.312130213,
          -0.436113328, 0.0999580994, 0.358121961, 1.02805293,
          0.757731855, -0.16131942, -0.208147898, 0.041022677,
          -0.103503548, -1.31010866, -0.350456566, 0.790661991,
          1.22702658, 0.96134901, -0.399626553, -0.146709993,
          -0.30279693, -0.539691627, -0.940153956, -0.574618936,
          0.969424963, 1.08553779, 0.955384791, 0.311039656, -0.13839978,
          -0.396334946, -0.275300175, -1.62270689, 0.0371704176,
          -0.126514211, 0.20450753, 0.193461806, 0.480138212,
          -0.0178789664, -0.210961908, -0.283849359, -0.911662459,
          -0.265333235, -0.0626446381, -0.239093721, -0.0809303969,
          0.0545182005, 0.165198132, -0.2607041, -0.14232254,
          -0.514896512, -0.326532602, 0.580982983, 0.875613749,
          0.284584939, 0.58957392, -0.123183072, -0.425521284,
          0.222112045, -1.04570997, 0.0927838534, 0.482484877,
          -0.0812343657, -0.144437507, 0.0545182005, -0.079748489,
          -0.147404388, 0.186343521, -0.126421034, -0.110811815,
          -0.0553680025, 0.0675874576, -0.0136015601, 0.0359077677,
          0.290612906, 0.500030577, -0.10980615, -0.179091021,
          -0.0338746682, 0.107965991, -0.129853338, 0.0835537165,
          -0.0281319264, -0.16572848, 0.186063349, -0.0935322568,
          0.550560951, -0.247411624, -0.0556542724, -0.0393643528,
          0.0611617118, 0.0838718489, -0.0141762048, 0.0432619229,
          -0.255596042, -0.0333785973, -0.0125726545, 0.179725543,
          -0.0486341082, 0.187353641, 0.0903192386, -0.0771723539,
          -0.276898772, -0.245382115, -0.0125726545, 0.0851913095,
          0.581467688, 0.408248335, 0.124760173, -0.167522773,
          0.00220843591, 0.0467317812, -0.282122999, -0.112788945,
          -0.289535195, 0.204960674, -0.0754811764, 0.0498874113,
          0.215196639, -0.0867697075, -0.0093920324, -0.182820305,
          -0.275288224, 0.0691020265, 0.0561685748, -0.303445607,
          -0.0957177505, 0.180468395, -0.0296981484, 0.0809871852,
          0.031819813, 0.0750775188, 0.0750775188, -0.429721892,
          -0.717707396, -0.0238224007, 0.145716786, 0.126367882,
          0.261422783, 0.222453952, 0.0750775188, 0.168189719,
          -0.0367997512, -0.198590755, 0.0475867987, -0.162645236,
          -0.489756227, -0.386276662, -0.0879513845, -0.182520807,
          0.214374155, 0.0978048369, -0.111300662, -0.316773206,
          0.0954535007, -0.186333865, -0.0708939135, 0.0534121692,
